svm_type c_svc
kernel_type rbf
gamma 0.00328947
nr_class 18
total_sv 519
rho 0.062643 -0.165884 -0.162116 -0.0903079 -0.0168551 -0.0459462 -0.215496 0.00184232 -0.234458 -0.219994 -0.087497 -0.210123 -0.000792392 -0.162959 -0.106771 0.400393 -0.0159547 -0.197201 -0.0706029 -0.0467547 -0.0334979 -0.103606 -0.177713 0.0017487 -0.302256 -0.186411 -0.0962152 -0.171454 -0.0365274 -0.196874 -0.136182 0.42856 -0.120056 0.13265 0.135884 0.104658 0.0500632 -0.0100504 0.106979 -0.0366735 -0.00482151 0.0333979 -0.0110229 0.111284 -0.00845248 -0.0211131 0.607489 0.104619 0.0809205 0.0410185 -0.0143018 -0.184562 0.0503593 -0.183351 -0.134734 -0.0526773 -0.167712 0.046974 -0.113548 -0.0928378 0.498882 0.0145691 0.0671265 -0.00290937 -0.190957 0.022167 -0.188613 -0.126874 -0.0729698 -0.242881 0.0180978 -0.129279 -0.0955111 0.479505 0.0168743 -0.105786 -0.146147 0.106202 -0.108207 -0.139566 -0.124998 -0.177428 -0.00157771 -0.135244 -0.0855872 0.391426 -0.0229164 -0.0675077 0.108406 -0.0666135 -0.0887157 -0.0191662 -0.0795949 0.106488 -0.090681 -0.0462101 0.395431 0.02842 0.181541 -0.0237343 0.0341029 0.0441712 -0.061953 0.150267 0.000306501 -0.017899 0.584371 0.102955 -0.123948 -0.139755 -0.259817 -0.187378 -0.0568462 -0.150021 -0.115498 0.252616 -0.0558793 0.0112914 0.0465888 0.00948636 0.11082 0.0200855 0.0223528 0.48655 0.186866 0.0616454 -0.0196625 0.126885 -0.0194959 -0.0142198 0.593934 0.104038 -0.0517902 0.155044 -0.0412367 -0.0271505 0.39421 0.0485852 0.17574 -0.00400801 -0.00655381 0.55928 0.128941 -0.127197 -0.0954714 0.404816 -0.017615 -0.0443171 0.618182 0.0988509 0.493585 0.109402 -0.4352
label 0 2 4 6 8 11 13 15 17 19 21 23 25 27 29 31 33 35
nr_sv 42 31 26 42 46 33 26 26 25 22 26 25 27 31 23 19 23 26
SV
0 0 0 2.377457294242851 0 0 0 0 0 0 0 0 0 0 0 0 0 1:0 2:0 3:0 4:0 5:0 6:0 7:1 8:1 9:1 10:1 11:1 12:1 13:0 14:0 15:0 16:0 17:0 18:0 19:0 20:0 21:0 22:0 23:0 24:1 25:1 26:1 27:1 28:1 29:1 30:1 31:1 32:1 33:0 34:0 35:0 36:0 37:0 38:0 39:0 40:0 41:0 42:1 43:1 44:1 45:1 46:1 47:1 48:1 49:1 50:1 51:1 52:0 53:0 54:0 55:0 56:0 57:0 58:0 59:0 60:1 61:1 62:1 63:1 64:1 65:0 66:0 67:1 68:1 69:1 70:1 71:0 72:0 73:0 74:0 75:0 76:0 77:0 78:0 79:1 80:1 81:1 82:1 83:0 84:0 85:0 86:1 87:1 88:1 89:1 90:0 91:0 92:0 93:0 94:0 95:0 96:0 97:0 98:1 99:1 100:1 101:1 102:0 103:0 104:0 105:1 106:1 107:1 108:1 109:0 110:0 111:0 112:0 113:0 114:0 115:0 116:1 117:1 118:1 119:1 120:0 121:0 122:0 123:1 124:1 125:1 126:1 127:1 128:0 129:0 130:0 131:0 132:0 133:0 134:0 135:1 136:1 137:1 138:1 139:0 140:0 141:0 142:1 143:1 144:1 145:1 146:0 147:0 148:0 149:0 150:0 151:0 152:0 153:0 154:1 155:1 156:1 157:1 158:1 159:0 160:0 161:1 162:1 163:1 164:1 165:0 166:0 167:0 168:0 169:0 170:0 171:0 172:1 173:1 174:1 175:1 176:1 177:0 178:0 179:1 180:1 181:1 182:1 183:0 184:0 185:0 186:0 187:0 188:0 189:0 190:0 191:1 192:1 193:1 194:1 195:0 196:0 197:0 198:1 199:1 200:1 201:1 202:0 203:0 204:0 205:0 206:0 207:0 208:0 209:0 210:1 211:1 212:1 213:1 214:0 215:0 216:1 217:1 218:1 219:1 220:0 221:0 222:0 223:0 224:0 225:0 226:0 227:0 228:0 229:0 230:1 231:1 232:1 233:1 234:1 235:1 236:1 237:1 238:1 239:0 240:0 241:0 242:0 243:0 244:0 245:0 246:0 247:0 248:1 249:1 250:1 251:1 252:1 253:1 254:1 255:1 256:1 257:0 258:0 259:0 260:0 261:0 262:0 263:0 264:0 265:0 266:0 267:0 268:1 269:1 270:1 271:1 272:1 273:1 274:0 275:0 276:0 277:0 278:0 279:0 280:0 281:0 282:0 283:0 284:0 285:0 286:0 287:0 288:0 289:0 290:0 291:0 292:0 293:0 294:0 295:0 296:0 297:0 298:0 299:0 300:0 301:0 302:0 303:0 304:0
0 0 0 0 0 0 0 0 0 0 0 0.4975026921090646 0 0 0 0 0 1:0 2:0 3:0 4:0 5:0 6:0 7:1 8:1 9:1 10:1 11:1 12:1 13:0 14:0 15:0 16:0 17:0 18:0 19:0 20:0 21:0 22:0 23:0 24:0 25:1 26:1 27:1 28:1 29:1 30:1 31:1 32:1 33:0 34:0 35:0 36:0 37:0 38:0 39:0 40:0 41:0 42:0 43:1 44:1 45:1 46:1 47:1 48:1 49:1 50:1 51:1 52:0 53:0 54:0 55:0 56:0 57:0 58:0 59:0 60:0 61:1 62:1 63:1 64:1 65:0 66:0 67:1 68:1 69:1 70:1 71:1 72:0 73:0 74:0 75:0 76:0 77:0 78:0 79:1 80:1 81:1 82:1 83:0 84:0 85:0 86:1 87:1 88:1 89:1 90:0 91:0 92:0 93:0 94:0 95:0 96:0 97:0 98:1 99:1 100:1 101:1 102:0 103:0 104:0 105:1 106:1 107:1 108:1 109:0 110:0 111:0 112:0 113:0 114:0 115:0 116:1 117:1 118:1 119:1 120:0 121:0 122:0 123:1 124:1 125:1 126:1 127:1 128:1 129:0 130:0 131:0 132:0 133:0 134:0 135:1 136:1 137:1 138:1 139:0 140:0 141:0 142:1 143:1 144:1 145:1 146:0 147:0 148:0 149:0 150:0 151:0 152:0 153:0 154:1 155:1 156:1 157:1 158:0 159:0 160:0 161:1 162:1 163:1 164:1 165:0 166:0 167:0 168:0 169:0 170:0 171:0 172:0 173:1 174:1 175:1 176:0 177:0 178:0 179:1 180:1 181:1 182:1 183:0 184:0 185:0 186:0 187:0 188:0 189:0 190:0 191:0 192:1 193:1 194:1 195:1 196:0 197:0 198:1 199:1 200:1 201:1 202:0 203:0 204:0 205:0 206:0 207:0 208:0 209:0 210:1 211:1 212:1 213:1 214:0 215:0 216:1 217:1 218:1 219:1 220:0 221:0 222:0 223:0 224:0 225:0 226:0 227:0 228:0 229:1 230:1 231:1 232:1 233:1 234:1 235:1 236:1 237:1 238:1 239:0 240:0 241:0 242:0 243:0 244:0 245:0 246:0 247:0 248:0 249:1 250:1 251:1 252:1 253:1 254:1 255:1 256:0 257:0 258:0 259:0 260:0 261:0 262:0 263:0 264:0 265:0 266:0 267:0 268:1 269:1 270:1 271:1 272:1 273:1 274:0 275:0 276:0 277:0 278:0 279:0 280:0 281:0 282:0 283:0 284:0 285:0 286:0 287:0 288:0 289:0 290:0 291:0 292:0 293:0 294:0 295:0 296:0 297:0 298:0 299:0 300:0 301:0 302:0 303:0 304:0
0 0 0 0 0 0 0 0.1495357569349036 0 0 0.03469437873508975 0 0 0 0 0 0 1:0 2:0 3:0 4:0 5:0 6:0 7:1 8:1 9:1 10:1 11:1 12:1 13:0 14:0 15:0 16:0 17:0 18:0 19:0 20:0 21:0 22:0 23:0 24:1 25:1 26:1 27:1 28:1 29:1 30:1 31:0 32:1 33:0 34:0 35:0 36:0 37:0 38:0 39:0 40:0 41:0 42:0 43:1 44:1 45:1 46:1 47:1 48:1 49:1 50:0 51:1 52:0 53:0 54:0 55:0 56:0 57:0 58:0 59:0 60:0 61:1 62:1 63:1 64:1 65:0 66:0 67:1 68:1 69:1 70:1 71:0 72:0 73:0 74:0 75:0 76:0 77:0 78:0 79:0 80:1 81:1 82:1 83:0 84:0 85:0 86:1 87:1 88:1 89:1 90:0 91:0 92:0 93:0 94:0 95:0 96:0 97:0 98:1 99:1 100:1 101:1 102:0 103:0 104:0 105:1 106:1 107:1 108:1 109:0 110:0 111:0 112:0 113:0 114:0 115:0 116:1 117:1 118:1 119:1 120:0 121:0 122:0 123:1 124:1 125:1 126:1 127:1 128:0 129:0 130:0 131:0 132:0 133:0 134:0 135:1 136:1 137:1 138:1 139:0 140:0 141:0 142:1 143:1 144:1 145:1 146:0 147:0 148:0 149:0 150:0 151:0 152:0 153:0 154:1 155:1 156:1 157:1 158:0 159:0 160:0 161:1 162:1 163:1 164:1 165:0 166:0 167:0 168:0 169:0 170:0 171:0 172:1 173:1 174:1 175:1 176:1 177:0 178:0 179:1 180:1 181:1 182:1 183:0 184:0 185:0 186:0 187:0 188:0 189:0 190:0 191:1 192:1 193:1 194:1 195:0 196:0 197:0 198:1 199:1 200:1 201:1 202:0 203:0 204:0 205:0 206:0 207:0 208:0 209:0 210:1 211:1 212:1 213:1 214:1 215:0 216:1 217:1 218:1 219:1 220:0 221:0 222:0 223:0 224:0 225:0 226:0 227:0 228:0 229:1 230:1 231:1 232:1 233:1 234:1 235:1 236:1 237:1 238:1 239:0 240:0 241:0 242:0 243:0 244:0 245:0 246:0 247:0 248:1 249:1 250:1 251:1 252:1 253:1 254:1 255:1 256:1 257:0 258:0 259:0 260:0 261:0 262:0 263:0 264:0 265:0 266:0 267:0 268:1 269:1 270:1 271:1 272:1 273:1 274:0 275:0 276:0 277:0 278:0 279:0 280:0 281:0 282:0 283:0 284:0 285:0 286:0 287:0 288:0 289:0 290:0 291:0 292:0 293:0 294:0 295:0 296:0 297:0 298:0 299:0 300:0 301:0 302:0 303:0 304:0
0.8271521826094999 0 0 0 1.805405419400356 1.211170564256738 1.043840775089973 0.1667049477909158 0 0 0 2.226722235655596 0.5532677852568314 0 0 0 0.07688068053104699 1:0 2:0 3:0 4:0 5:0 6:0 7:1 8:1 9:1 10:1 11:1 12:1 13:0 14:0 15:0 16:0 17:0 18:0 19:0 20:0 21:0 22:0 23:0 24:1 25:1 26:1 27:1 28:1 29:1 30:1 31:1 32:1 33:0 34:0 35:0 36:0 37:0 38:0 39:0 40:0 41:0 42:1 43:1 44:1 45:1 46:1 47:1 48:1 49:1 50:1 51:1 52:0 53:0 54:0 55:0 56:0 57:0 58:0 59:0 60:0 61:1 62:1 63:1 64:1 65:0 66:0 67:1 68:1 69:1 70:1 71:0 72:0 73:0 74:0 75:0 76:0 77:0 78:0 79:1 80:1 81:1 82:1 83:0 84:0 85:0 86:1 87:1 88:1 89:1 90:0 91:0 92:0 93:0 94:0 95:0 96:0 97:0 98:1 99:1 100:1 101:1 102:0 103:0 104:0 105:1 106:1 107:1 108:1 109:0 110:0 111:0 112:0 113:0 114:0 115:0 116:1 117:1 118:1 119:1 120:0 121:0 122:0 123:1 124:1 125:1 126:1 127:1 128:0 129:0 130:0 131:0 132:0 133:0 134:0 135:1 136:1 137:1 138:1 139:0 140:0 141:0 142:1 143:1 144:1 145:1 146:0 147:0 148:0 149:0 150:0 151:0 152:0 153:0 154:1 155:1 156:1 157:1 158:0 159:0 160:0 161:1 162:1 163:1 164:1 165:0 166:0 167:0 168:0 169:0 170:0 171:0 172:1 173:1 174:1 175:1 176:1 177:0 178:0 179:1 180:1 181:1 182:1 183:0 184:0 185:0 186:0 187:0 188:0 189:0 190:0 191:0 192:1 193:1 194:1 195:0 196:0 197:0 198:1 199:1 200:1 201:1 202:0 203:0 204:0 205:0 206:0 207:0 208:0 209:0 210:1 211:1 212:1 213:1 214:0 215:0 216:1 217:1 218:1 219:0 220:0 221:0 222:0 223:0 224:0 225:0 226:0 227:0 228:0 229:1 230:1 231:1 232:1 233:1 234:1 235:1 236:1 237:1 238:1 239:0 240:0 241:0 242:0 243:0 244:0 245:0 246:0 247:0 248:1 249:1 250:1 251:1 252:1 253:1 254:1 255:1 256:1 257:0 258:0 259:0 260:0 261:0 262:0 263:0 264:0 265:0 266:0 267:1 268:1 269:1 270:1 271:1 272:1 273:1 274:0 275:0 276:0 277:0 278:0 279:0 280:0 281:0 282:0 283:0 284:0 285:0 286:0 287:0 288:0 289:0 290:0 291:0 292:0 293:0 294:0 295:0 296:0 297:0 298:0 299:0 300:0 301:0 302:0 303:0 304:0
0.2429406706762735 0 0 0 0.5581398601086726 0 0.3164522103654393 0.0679306912401392 0 0.2181378389042508 0 0.4010779883122269 0 0 0.2989418344971045 0 0 1:0 2:0 3:0 4:0 5:0 6:0 7:0 8:0 9:0 10:0 11:1 12:0 13:0 14:0 15:0 16:0 17:0 18:0 19:0 20:0 21:0 22:0 23:0 24:0 25:0 26:1 27:1 28:1 29:1 30:1 31:1 32:0 33:0 34:0 35:0 36:0 37:0 38:0 39:0 40:0 41:0 42:0 43:1 44:1 45:1 46:1 47:1 48:1 49:1 50:1 51:1 52:0 53:0 54:0 55:0 56:0 57:0 58:0 59:0 60:0 61:1 62:1 63:1 64:1 65:1 66:1 67:1 68:1 69:1 70:1 71:0 72:0 73:0 74:0 75:0 76:0 77:0 78:0 79:0 80:1 81:1 82:1 83:1 84:0 85:0 86:1 87:1 88:1 89:1 90:0 91:0 92:0 93:0 94:0 95:0 96:0 97:0 98:1 99:1 100:1 101:1 102:0 103:0 104:0 105:1 106:1 107:1 108:1 109:0 110:0 111:0 112:0 113:0 114:0 115:0 116:0 117:1 118:1 119:1 120:1 121:0 122:0 123:0 124:1 125:1 126:1 127:1 128:0 129:0 130:0 131:0 132:0 133:0 134:0 135:1 136:1 137:1 138:1 139:1 140:0 141:0 142:1 143:1 144:1 145:1 146:1 147:0 148:0 149:0 150:0 151:0 152:0 153:0 154:0 155:1 156:1 157:1 158:0 159:0 160:0 161:1 162:1 163:1 164:1 165:0 166:0 167:0 168:0 169:0 170:0 171:0 172:0 173:1 174:1 175:1 176:1 177:0 178:0 179:0 180:1 181:1 182:1 183:1 184:0 185:0 186:0 187:0 188:0 189:0 190:0 191:1 192:1 193:1 194:1 195:1 196:0 197:0 198:1 199:1 200:1 201:0 202:0 203:0 204:0 205:0 206:0 207:0 208:0 209:0 210:1 211:1 212:1 213:1 214:0 215:0 216:0 217:1 218:1 219:1 220:1 221:0 222:0 223:0 224:0 225:0 226:0 227:0 228:0 229:1 230:1 231:1 232:1 233:0 234:0 235:1 236:1 237:1 238:1 239:0 240:0 241:0 242:0 243:0 244:0 245:0 246:0 247:0 248:1 249:1 250:1 251:1 252:1 253:1 254:1 255:1 256:1 257:1 258:0 259:0 260:0 261:0 262:0 263:0 264:0 265:0 266:0 267:1 268:1 269:1 270:1 271:1 272:1 273:1 274:1 275:1 276:0 277:0 278:0 279:0 280:0 281:0 282:0 283:0 284:0 285:0 286:0 287:1 288:1 289:1 290:1 291:1 292:1 293:0 294:0 295:0 296:0 297:0 298:0 299:0 300:0 301:0 302:0 303:0 304:0
0 0.7549016966748472 0 0 0 0 0 0 0.9464642449091764 0 0 0 0 0 0 0 0.1944577935837134 1:0 2:0 3:0 4:0 5:0 6:0 7:0 8:0 9:0 10:0 11:0 12:1 13:0 14:0 15:0 16:0 17:0 18:0 19:0 20:0 21:0 22:0 23:0 24:0 25:0 26:1 27:1 28:1 29:1 30:1 31:1 32:0 33:0 34:0 35:0 36:0 37:0 38:0 39:0 40:0 41:0 42:0 43:0 44:1 45:1 46:1 47:1 48:1 49:1 50:1 51:1 52:0 53:0 54:0 55:0 56:0 57:0 58:0 59:0 60:0 61:0 62:1 63:1 64:1 65:1 66:1 67:1 68:1 69:1 70:1 71:0 72:0 73:0 74:0 75:0 76:0 77:0 78:0 79:0 80:1 81:1 82:1 83:1 84:0 85:0 86:1 87:1 88:1 89:1 90:0 91:0 92:0 93:0 94:0 95:0 96:0 97:0 98:1 99:1 100:1 101:1 102:0 103:0 104:0 105:1 106:1 107:1 108:1 109:0 110:0 111:0 112:0 113:0 114:0 115:0 116:0 117:1 118:1 119:1 120:1 121:0 122:0 123:0 124:1 125:1 126:1 127:1 128:0 129:0 130:0 131:0 132:0 133:0 134:0 135:1 136:1 137:1 138:1 139:0 140:0 141:0 142:1 143:1 144:1 145:1 146:1 147:0 148:0 149:0 150:0 151:0 152:0 153:0 154:1 155:1 156:1 157:1 158:0 159:0 160:0 161:1 162:1 163:1 164:1 165:0 166:0 167:0 168:0 169:0 170:0 171:0 172:0 173:1 174:1 175:1 176:1 177:0 178:0 179:0 180:1 181:1 182:1 183:1 184:0 185:0 186:0 187:0 188:0 189:0 190:0 191:1 192:1 193:1 194:1 195:1 196:0 197:0 198:1 199:1 200:1 201:1 202:0 203:0 204:0 205:0 206:0 207:0 208:0 209:0 210:1 211:1 212:1 213:1 214:0 215:0 216:0 217:1 218:1 219:1 220:1 221:0 222:0 223:0 224:0 225:0 226:0 227:0 228:0 229:1 230:1 231:1 232:1 233:0 234:0 235:1 236:1 237:1 238:1 239:0 240:0 241:0 242:0 243:0 244:0 245:0 246:0 247:0 248:1 249:1 250:1 251:1 252:1 253:1 254:1 255:1 256:1 257:1 258:1 259:0 260:0 261:0 262:0 263:0 264:0 265:0 266:0 267:1 268:1 269:1 270:1 271:1 272:1 273:1 274:1 275:1 276:0 277:0 278:0 279:0 280:0 281:0 282:0 283:0 284:0 285:0 286:0 287:1 288:1 289:1 290:1 291:1 292:1 293:0 294:0 295:0 296:0 297:0 298:0 299:0 300:0 301:0 302:0 303:0 304:0
0.03584265918048889 0 0 0 0 0 0 0 0.4778093407206108 0 0 0 0 0 0.9237144853273205 0 0.7255042007041349 1:0 2:0 3:0 4:0 5:0 6:0 7:1 8:1 9:1 10:1 11:1 12:1 13:0 14:0 15:0 16:0 17:0 18:0 19:0 20:0 21:0 22:0 23:0 24:1 25:1 26:1 27:1 28:1 29:1 30:1 31:1 32:1 33:0 34:0 35:0 36:0 37:0 38:0 39:0 40:0 41:0 42:1 43:1 44:1 45:1 46:1 47:1 48:1 49:1 50:1 51:1 52:0 53:0 54:0 55:0 56:0 57:0 58:0 59:0 60:0 61:1 62:1 63:1 64:1 65:0 66:0 67:1 68:1 69:1 70:1 71:0 72:0 73:0 74:0 75:0 76:0 77:0 78:0 79:1 80:1 81:1 82:1 83:0 84:0 85:0 86:1 87:1 88:1 89:1 90:0 91:0 92:0 93:0 94:0 95:0 96:0 97:0 98:1 99:1 100:1 101:0 102:0 103:0 104:0 105:1 106:1 107:1 108:1 109:0 110:0 111:0 112:0 113:0 114:0 115:0 116:1 117:1 118:1 119:0 120:0 121:0 122:0 123:1 124:1 125:1 126:1 127:1 128:0 129:0 130:0 131:0 132:0 133:0 134:0 135:1 136:1 137:1 138:1 139:0 140:0 141:0 142:1 143:1 144:1 145:1 146:0 147:0 148:0 149:0 150:0 151:0 152:0 153:0 154:1 155:1 156:1 157:1 158:0 159:0 160:0 161:1 162:1 163:1 164:1 165:0 166:0 167:0 168:0 169:0 170:0 171:0 172:1 173:1 174:1 175:1 176:1 177:0 178:0 179:1 180:1 181:1 182:1 183:0 184:0 185:0 186:0 187:0 188:0 189:0 190:0 191:1 192:1 193:1 194:1 195:0 196:0 197:0 198:1 199:1 200:1 201:1 202:0 203:0 204:0 205:0 206:0 207:0 208:0 209:0 210:1 211:1 212:1 213:1 214:0 215:0 216:1 217:1 218:1 219:1 220:0 221:0 222:0 223:0 224:0 225:0 226:0 227:0 228:0 229:1 230:1 231:1 232:1 233:1 234:1 235:1 236:1 237:1 238:0 239:0 240:0 241:0 242:0 243:0 244:0 245:0 246:0 247:0 248:1 249:1 250:1 251:1 252:1 253:1 254:1 255:1 256:1 257:0 258:0 259:0 260:0 261:0 262:0 263:0 264:0 265:0 266:0 267:0 268:1 269:1 270:1 271:1 272:1 273:1 274:0 275:0 276:0 277:0 278:0 279:0 280:0 281:0 282:0 283:0 284:0 285:0 286:0 287:0 288:0 289:0 290:0 291:0 292:0 293:0 294:0 295:0 296:0 297:0 298:0 299:0 300:0 301:0 302:0 303:0 304:0
4.405196544069669 3.431893851270745 4.534245668202917 6.365356916370383 4.779459552349487 4.32156704640192 2.555112240218228 2.635077747867656 1.936595047325624 3.318217399569211 2.462097924846172 3.347473973958198 3.471302542212909 2.356913055399379 1.298135464755375 3.190695492431353 2.894244724385973 1:0 2:0 3:0 4:0 5:0 6:0 7:0 8:0 9:0 10:0 11:0 12:0 13:1 14:0 15:0 16:0 17:0 18:0 19:0 20:0 21:0 22:0 23:0 24:0 25:0 26:0 27:1 28:1 29:1 30:1 31:1 32:1 33:0 34:0 35:0 36:0 37:0 38:0 39:0 40:0 41:0 42:0 43:0 44:1 45:1 46:1 47:1 48:1 49:1 50:1 51:1 52:1 53:0 54:0 55:0 56:0 57:0 58:0 59:0 60:0 61:0 62:0 63:1 64:1 65:1 66:1 67:1 68:1 69:1 70:1 71:1 72:0 73:0 74:0 75:0 76:0 77:0 78:0 79:0 80:0 81:1 82:1 83:1 84:1 85:0 86:0 87:1 88:1 89:1 90:1 91:0 92:0 93:0 94:0 95:0 96:0 97:0 98:0 99:1 100:1 101:1 102:1 103:0 104:0 105:0 106:1 107:1 108:1 109:1 110:0 111:0 112:0 113:0 114:0 115:0 116:0 117:0 118:1 119:1 120:1 121:1 122:0 123:0 124:0 125:1 126:1 127:1 128:1 129:0 130:0 131:0 132:0 133:0 134:0 135:0 136:1 137:1 138:1 139:1 140:0 141:0 142:0 143:1 144:1 145:1 146:1 147:1 148:0 149:0 150:0 151:0 152:0 153:0 154:0 155:1 156:1 157:1 158:1 159:0 160:0 161:0 162:1 163:1 164:1 165:1 166:0 167:0 168:0 169:0 170:0 171:0 172:0 173:0 174:1 175:1 176:1 177:1 178:0 179:0 180:0 181:1 182:1 183:1 184:1 185:0 186:0 187:0 188:0 189:0 190:0 191:0 192:1 193:1 194:1 195:1 196:1 197:0 198:0 199:1 200:1 201:1 202:1 203:0 204:0 205:0 206:0 207:0 208:0 209:0 210:0 211:1 212:1 213:1 214:1 215:1 216:0 217:0 218:1 219:1 220:1 221:1 222:0 223:0 224:0 225:0 226:0 227:0 228:0 229:0 230:1 231:1 232:1 233:1 234:0 235:0 236:1 237:1 238:1 239:1 240:0 241:0 242:0 243:0 244:0 245:0 246:0 247:0 248:1 249:1 250:1 251:1 252:1 253:1 254:1 255:1 256:1 257:1 258:1 259:0 260:0 261:0 262:0 263:0 264:0 265:0 266:0 267:0 268:1 269:1 270:1 271:1 272:1 273:1 274:1 275:1 276:1 277:0 278:0 279:0 280:0 281:0 282:0 283:0 284:0 285:0 286:0 287:0 288:1 289:1 290:1 291:1 292:1 293:1 294:0 295:0 296:0 297:0 298:0 299:0 300:0 301:0 302:0 303:0 304:0
0.8473578227504364 0 0 0 0 0 0 0 0 0 0 0.2375643187103481 0.06496868977565656 0.3868227246981087 0.6509618785684687 0 0 1:0 2:0 3:0 4:0 5:0 6:0 7:1 8:1 9:1 10:1 11:1 12:1 13:0 14:0 15:0 16:0 17:0 18:0 19:0 20:0 21:0 22:0 23:0 24:1 25:1 26:1 27:1 28:1 29:1 30:1 31:1 32:1 33:0 34:0 35:0 36:0 37:0 38:0 39:0 40:0 41:0 42:1 43:1 44:1 45:1 46:1 47:1 48:1 49:1 50:1 51:1 52:0 53:0 54:0 55:0 56:0 57:0 58:0 59:0 60:0 61:1 62:1 63:1 64:1 65:0 66:0 67:1 68:1 69:1 70:1 71:0 72:0 73:0 74:0 75:0 76:0 77:0 78:0 79:1 80:1 81:1 82:1 83:0 84:0 85:0 86:1 87:1 88:1 89:1 90:0 91:0 92:0 93:0 94:0 95:0 96:0 97:0 98:1 99:1 100:1 101:1 102:0 103:0 104:0 105:1 106:1 107:1 108:1 109:0 110:0 111:0 112:0 113:0 114:0 115:0 116:1 117:1 118:1 119:1 120:0 121:0 122:0 123:1 124:1 125:1 126:1 127:1 128:0 129:0 130:0 131:0 132:0 133:0 134:0 135:1 136:1 137:1 138:0 139:0 140:0 141:0 142:1 143:1 144:1 145:1 146:0 147:0 148:0 149:0 150:0 151:0 152:0 153:0 154:1 155:1 156:1 157:1 158:0 159:0 160:0 161:1 162:1 163:1 164:1 165:0 166:0 167:0 168:0 169:0 170:0 171:0 172:1 173:1 174:1 175:1 176:0 177:0 178:0 179:1 180:1 181:1 182:1 183:0 184:0 185:0 186:0 187:0 188:0 189:0 190:0 191:1 192:1 193:1 194:1 195:0 196:0 197:0 198:1 199:1 200:1 201:1 202:0 203:0 204:0 205:0 206:0 207:0 208:0 209:0 210:1 211:1 212:1 213:1 214:0 215:0 216:1 217:1 218:1 219:1 220:0 221:0 222:0 223:0 224:0 225:0 226:0 227:0 228:0 229:1 230:1 231:1 232:1 233:1 234:1 235:1 236:1 237:1 238:0 239:0 240:0 241:0 242:0 243:0 244:0 245:0 246:0 247:0 248:0 249:1 250:1 251:1 252:1 253:1 254:1 255:1 256:1 257:0 258:0 259:0 260:0 261:0 262:0 263:0 264:0 265:0 266:0 267:0 268:1 269:1 270:1 271:1 272:1 273:0 274:0 275:0 276:0 277:0 278:0 279:0 280:0 281:0 282:0 283:0 284:0 285:0 286:0 287:0 288:0 289:0 290:0 291:0 292:0 293:0 294:0 295:0 296:0 297:0 298:0 299:0 300:0 301:0 302:0 303:0 304:0
0 0 0 0 0 0 0 0 0 0 0 0 0.2616397794380476 0 0 0 0 1:0 2:0 3:0 4:0 5:0 6:0 7:1 8:1 9:1 10:1 11:1 12:1 13:0 14:0 15:0 16:0 17:0 18:0 19:0 20:0 21:0 22:0 23:0 24:0 25:1 26:1 27:1 28:1 29:1 30:1 31:1 32:1 33:0 34:0 35:0 36:0 37:0 38:0 39:0 40:0 41:0 42:1 43:1 44:1 45:1 46:1 47:1 48:1 49:1 50:1 51:1 52:0 53:0 54:0 55:0 56:0 57:0 58:0 59:0 60:0 61:1 62:1 63:1 64:1 65:0 66:0 67:1 68:1 69:1 70:1 71:0 72:0 73:0 74:0 75:0 76:0 77:0 78:0 79:1 80:1 81:1 82:1 83:0 84:0 85:0 86:1 87:1 88:1 89:1 90:0 91:0 92:0 93:0 94:0 95:0 96:0 97:0 98:1 99:1 100:1 101:1 102:0 103:0 104:0 105:1 106:1 107:1 108:1 109:0 110:0 111:0 112:0 113:0 114:0 115:0 116:1 117:1 118:1 119:1 120:0 121:0 122:0 123:1 124:1 125:1 126:1 127:1 128:0 129:0 130:0 131:0 132:0 133:0 134:0 135:1 136:1 137:1 138:1 139:0 140:0 141:0 142:1 143:1 144:1 145:1 146:0 147:0 148:0 149:0 150:0 151:0 152:0 153:0 154:1 155:1 156:1 157:1 158:0 159:0 160:1 161:1 162:1 163:1 164:1 165:0 166:0 167:0 168:0 169:0 170:0 171:0 172:1 173:1 174:1 175:1 176:1 177:0 178:0 179:1 180:1 181:1 182:1 183:0 184:0 185:0 186:0 187:0 188:0 189:0 190:0 191:1 192:1 193:1 194:1 195:0 196:0 197:0 198:1 199:1 200:1 201:1 202:0 203:0 204:0 205:0 206:0 207:0 208:0 209:0 210:1 211:1 212:1 213:1 214:0 215:0 216:1 217:1 218:1 219:1 220:0 221:0 222:0 223:0 224:0 225:0 226:0 227:0 228:0 229:1 230:1 231:1 232:1 233:1 234:1 235:1 236:1 237:1 238:1 239:0 240:0 241:0 242:0 243:0 244:0 245:0 246:0 247:0 248:1 249:1 250:1 251:1 252:1 253:1 254:1 255:1 256:0 257:0 258:0 259:0 260:0 261:0 262:0 263:0 264:0 265:0 266:0 267:0 268:1 269:1 270:1 271:1 272:1 273:1 274:0 275:0 276:0 277:0 278:0 279:0 280:0 281:0 282:0 283:0 284:0 285:0 286:0 287:0 288:0 289:0 290:0 291:0 292:0 293:0 294:0 295:0 296:0 297:0 298:0 299:0 300:0 301:0 302:0 303:0 304:0
1.15461272815148 0 0 0 0 0 0 0 2.693203748730226 0 0 0.03489909169125237 0 0 0 0 0.263054941923419 1:0 2:0 3:0 4:0 5:0 6:0 7:1 8:1 9:1 10:1 11:1 12:1 13:0 14:0 15:0 16:0 17:0 18:0 19:0 20:0 21:0 22:0 23:0 24:1 25:1 26:1 27:1 28:1 29:1 30:1 31:1 32:1 33:0 34:0 35:0 36:0 37:0 38:0 39:0 40:0 41:0 42:0 43:1 44:1 45:1 46:0 47:1 48:1 49:1 50:1 51:1 52:0 53:0 54:0 55:0 56:0 57:0 58:0 59:0 60:0 61:1 62:1 63:1 64:1 65:0 66:0 67:1 68:1 69:1 70:1 71:0 72:0 73:0 74:0 75:0 76:0 77:0 78:0 79:1 80:1 81:1 82:1 83:0 84:0 85:0 86:1 87:1 88:1 89:1 90:0 91:0 92:0 93:0 94:0 95:0 96:0 97:0 98:0 99:1 100:1 101:1 102:0 103:0 104:0 105:1 106:1 107:1 108:1 109:0 110:0 111:0 112:0 113:0 114:0 115:0 116:0 117:1 118:0 119:1 120:0 121:0 122:0 123:1 124:1 125:1 126:1 127:1 128:0 129:0 130:0 131:0 132:0 133:0 134:0 135:1 136:1 137:1 138:1 139:0 140:0 141:0 142:1 143:1 144:1 145:1 146:0 147:0 148:0 149:0 150:0 151:0 152:0 153:0 154:1 155:1 156:1 157:1 158:0 159:0 160:0 161:1 162:1 163:1 164:1 165:0 166:0 167:0 168:0 169:0 170:0 171:0 172:1 173:1 174:1 175:1 176:1 177:0 178:0 179:1 180:1 181:1 182:1 183:0 184:0 185:0 186:0 187:0 188:0 189:0 190:0 191:1 192:1 193:1 194:1 195:0 196:0 197:0 198:1 199:1 200:1 201:1 202:0 203:0 204:0 205:0 206:0 207:0 208:0 209:0 210:1 211:1 212:1 213:1 214:0 215:0 216:1 217:1 218:1 219:1 220:0 221:0 222:0 223:0 224:0 225:0 226:0 227:0 228:0 229:0 230:1 231:1 232:1 233:1 234:1 235:1 236:1 237:1 238:1 239:0 240:0 241:0 242:0 243:0 244:0 245:0 246:0 247:0 248:1 249:1 250:1 251:1 252:1 253:1 254:1 255:1 256:1 257:0 258:0 259:0 260:0 261:0 262:0 263:0 264:0 265:0 266:0 267:0 268:1 269:1 270:1 271:1 272:1 273:1 274:0 275:0 276:0 277:0 278:0 279:0 280:0 281:0 282:0 283:0 284:0 285:0 286:0 287:0 288:0 289:0 290:0 291:0 292:0 293:0 294:0 295:0 296:0 297:0 298:0 299:0 300:0 301:0 302:0 303:0 304:0
0.3306936822055747 0 0 0 0 0.9676916767654952 0 0 0 0 0 0 1.058123308070211 0 0 0 0 1:0 2:0 3:0 4:0 5:0 6:0 7:0 8:1 9:1 10:1 11:1 12:1 13:1 14:0 15:0 16:0 17:0 18:0 19:0 20:0 21:0 22:0 23:0 24:0 25:0 26:1 27:1 28:1 29:1 30:1 31:1 32:1 33:1 34:0 35:0 36:0 37:0 38:0 39:0 40:0 41:0 42:0 43:0 44:1 45:1 46:1 47:1 48:1 49:1 50:1 51:1 52:1 53:0 54:0 55:0 56:0 57:0 58:0 59:0 60:0 61:0 62:1 63:1 64:1 65:1 66:0 67:0 68:1 69:1 70:1 71:1 72:0 73:0 74:0 75:0 76:0 77:0 78:0 79:0 80:1 81:1 82:1 83:1 84:0 85:0 86:0 87:1 88:1 89:1 90:1 91:0 92:0 93:0 94:0 95:0 96:0 97:0 98:0 99:1 100:1 101:1 102:1 103:0 104:0 105:0 106:1 107:1 108:1 109:1 110:0 111:0 112:0 113:0 114:0 115:0 116:0 117:1 118:1 119:1 120:1 121:0 122:0 123:0 124:1 125:1 126:1 127:1 128:1 129:0 130:0 131:0 132:0 133:0 134:0 135:0 136:1 137:1 138:1 139:1 140:0 141:0 142:0 143:1 144:1 145:1 146:1 147:1 148:0 149:0 150:0 151:0 152:0 153:0 154:0 155:1 156:1 157:1 158:1 159:0 160:0 161:0 162:1 163:1 164:1 165:1 166:0 167:0 168:0 169:0 170:0 171:0 172:0 173:0 174:1 175:1 176:1 177:0 178:0 179:0 180:1 181:1 182:1 183:1 184:0 185:0 186:0 187:0 188:0 189:0 190:0 191:0 192:1 193:1 194:1 195:1 196:1 197:0 198:0 199:1 200:1 201:1 202:1 203:0 204:0 205:0 206:0 207:0 208:0 209:0 210:0 211:1 212:1 213:1 214:1 215:0 216:0 217:1 218:1 219:1 220:1 221:0 222:0 223:0 224:0 225:0 226:0 227:0 228:0 229:1 230:1 231:1 232:1 233:1 234:1 235:1 236:1 237:1 238:1 239:1 240:0 241:0 242:0 243:0 244:0 245:0 246:0 247:0 248:0 249:0 250:1 251:1 252:1 253:1 254:1 255:1 256:1 257:1 258:0 259:0 260:0 261:0 262:0 263:0 264:0 265:0 266:0 267:0 268:0 269:1 270:1 271:1 272:1 273:1 274:1 275:0 276:0 277:0 278:0 279:0 280:0 281:0 282:0 283:0 284:0 285:0 286:0 287:0 288:0 289:0 290:0 291:0 292:0 293:0 294:0 295:0 296:0 297:0 298:0 299:0 300:0 301:0 302:0 303:0 304:0
0 0.1858228469786313 0 0 0 0 0 0 0 0 0 0 0 0 0 0 0 1:0 2:0 3:0 4:0 5:0 6:0 7:1 8:1 9:1 10:1 11:1 12:1 13:0 14:0 15:0 16:0 17:0 18:0 19:0 20:0 21:0 22:0 23:0 24:0 25:1 26:1 27:1 28:1 29:1 30:1 31:1 32:1 33:0 34:0 35:0 36:0 37:0 38:0 39:0 40:0 41:0 42:0 43:1 44:1 45:1 46:1 47:1 48:1 49:1 50:1 51:1 52:0 53:0 54:0 55:0 56:0 57:0 58:0 59:0 60:0 61:1 62:1 63:1 64:1 65:0 66:0 67:1 68:1 69:1 70:1 71:0 72:0 73:0 74:0 75:0 76:0 77:0 78:0 79:1 80:1 81:1 82:1 83:0 84:0 85:0 86:1 87:1 88:1 89:1 90:0 91:0 92:0 93:0 94:0 95:0 96:0 97:0 98:0 99:1 100:1 101:1 102:0 103:0 104:0 105:1 106:1 107:1 108:1 109:0 110:0 111:0 112:0 113:0 114:0 115:0 116:1 117:1 118:1 119:1 120:0 121:0 122:0 123:1 124:1 125:1 126:1 127:1 128:0 129:0 130:0 131:0 132:0 133:0 134:0 135:1 136:1 137:1 138:1 139:0 140:0 141:0 142:1 143:1 144:1 145:1 146:0 147:0 148:0 149:0 150:0 151:0 152:0 153:0 154:1 155:1 156:1 157:1 158:0 159:0 160:0 161:1 162:1 163:1 164:1 165:0 166:0 167:0 168:0 169:0 170:0 171:0 172:0 173:1 174:1 175:1 176:0 177:0 178:0 179:1 180:1 181:1 182:1 183:0 184:0 185:0 186:0 187:0 188:0 189:0 190:0 191:1 192:1 193:1 194:1 195:1 196:0 197:0 198:1 199:1 200:1 201:1 202:0 203:0 204:0 205:0 206:0 207:0 208:0 209:0 210:1 211:1 212:1 213:1 214:0 215:0 216:1 217:1 218:1 219:1 220:0 221:0 222:0 223:0 224:0 225:0 226:0 227:0 228:0 229:1 230:1 231:1 232:1 233:1 234:1 235:1 236:1 237:1 238:1 239:1 240:0 241:0 242:0 243:0 244:0 245:0 246:0 247:0 248:0 249:1 250:1 251:1 252:1 253:1 254:1 255:1 256:1 257:0 258:0 259:0 260:0 261:0 262:0 263:0 264:0 265:0 266:0 267:0 268:0 269:1 270:1 271:1 272:1 273:1 274:0 275:0 276:0 277:0 278:0 279:0 280:0 281:0 282:0 283:0 284:0 285:0 286:0 287:0 288:0 289:0 290:0 291:0 292:0 293:0 294:0 295:0 296:0 297:0 298:0 299:0 300:0 301:0 302:0 303:0 304:0
1.147009572281464 0 0 0 0 0 0 0 0 0 0 0 0 0 0 0 0 1:0 2:0 3:0 4:0 5:0 6:0 7:1 8:1 9:1 10:1 11:1 12:1 13:0 14:0 15:0 16:0 17:0 18:0 19:0 20:0 21:0 22:0 23:0 24:0 25:1 26:1 27:1 28:1 29:1 30:1 31:1 32:1 33:0 34:0 35:0 36:0 37:0 38:0 39:0 40:0 41:0 42:0 43:1 44:1 45:1 46:1 47:1 48:1 49:1 50:1 51:1 52:0 53:0 54:0 55:0 56:0 57:0 58:0 59:0 60:0 61:1 62:1 63:1 64:1 65:0 66:0 67:1 68:1 69:1 70:1 71:0 72:0 73:0 74:0 75:0 76:0 77:0 78:0 79:1 80:1 81:1 82:1 83:0 84:0 85:0 86:1 87:1 88:1 89:1 90:0 91:0 92:0 93:0 94:0 95:0 96:0 97:0 98:1 99:1 100:1 101:1 102:0 103:0 104:0 105:1 106:1 107:1 108:1 109:0 110:0 111:0 112:0 113:0 114:0 115:0 116:1 117:1 118:1 119:1 120:0 121:0 122:0 123:1 124:1 125:1 126:1 127:1 128:0 129:0 130:0 131:0 132:0 133:0 134:0 135:1 136:1 137:1 138:1 139:0 140:0 141:0 142:1 143:1 144:1 145:1 146:0 147:0 148:0 149:0 150:0 151:0 152:0 153:1 154:1 155:1 156:0 157:1 158:0 159:0 160:0 161:1 162:1 163:1 164:1 165:0 166:0 167:0 168:0 169:0 170:0 171:0 172:0 173:1 174:1 175:1 176:0 177:0 178:0 179:1 180:1 181:0 182:0 183:0 184:0 185:0 186:0 187:0 188:0 189:0 190:0 191:1 192:1 193:1 194:1 195:0 196:0 197:0 198:1 199:1 200:1 201:1 202:0 203:0 204:0 205:0 206:0 207:0 208:0 209:0 210:1 211:1 212:1 213:1 214:0 215:0 216:1 217:1 218:1 219:1 220:0 221:0 222:0 223:0 224:0 225:0 226:0 227:0 228:0 229:1 230:1 231:1 232:1 233:1 234:1 235:1 236:1 237:1 238:1 239:0 240:0 241:0 242:0 243:0 244:0 245:0 246:0 247:0 248:0 249:1 250:1 251:1 252:1 253:1 254:1 255:1 256:1 257:0 258:0 259:0 260:0 261:0 262:0 263:0 264:0 265:0 266:0 267:0 268:1 269:1 270:1 271:1 272:1 273:1 274:0 275:0 276:0 277:0 278:0 279:0 280:0 281:0 282:0 283:0 284:0 285:0 286:0 287:0 288:0 289:0 290:0 291:0 292:0 293:0 294:0 295:0 296:0 297:0 298:0 299:0 300:0 301:0 302:0 303:0 304:0
0 0 0 0 0 0 0 0 0.8311658262498987 0 0 0 0 0 0 0 0 1:0 2:0 3:0 4:0 5:0 6:0 7:1 8:1 9:1 10:1 11:1 12:1 13:0 14:0 15:0 16:0 17:0 18:0 19:0 20:0 21:0 22:0 23:0 24:0 25:1 26:1 27:1 28:1 29:1 30:1 31:1 32:1 33:0 34:0 35:0 36:0 37:0 38:0 39:0 40:0 41:0 42:0 43:1 44:1 45:1 46:1 47:1 48:1 49:1 50:1 51:0 52:0 53:0 54:0 55:0 56:0 57:0 58:0 59:0 60:0 61:1 62:1 63:1 64:1 65:0 66:0 67:0 68:1 69:1 70:1 71:0 72:0 73:0 74:0 75:0 76:0 77:0 78:0 79:1 80:1 81:1 82:0 83:0 84:0 85:0 86:1 87:1 88:1 89:1 90:0 91:0 92:0 93:0 94:0 95:0 96:0 97:0 98:1 99:1 100:1 101:1 102:0 103:0 104:0 105:1 106:1 107:1 108:1 109:0 110:0 111:0 112:0 113:0 114:0 115:1 116:1 117:1 118:1 119:1 120:0 121:0 122:0 123:1 124:1 125:1 126:1 127:1 128:0 129:0 130:0 131:0 132:0 133:0 134:0 135:1 136:1 137:1 138:1 139:0 140:0 141:0 142:1 143:1 144:1 145:1 146:0 147:0 148:0 149:0 150:0 151:0 152:0 153:0 154:1 155:1 156:1 157:1 158:0 159:0 160:0 161:1 162:1 163:1 164:1 165:0 166:0 167:0 168:0 169:0 170:0 171:0 172:0 173:1 174:1 175:1 176:0 177:0 178:0 179:1 180:1 181:1 182:1 183:0 184:0 185:0 186:0 187:0 188:0 189:0 190:0 191:1 192:1 193:1 194:1 195:0 196:0 197:0 198:1 199:1 200:1 201:1 202:0 203:0 204:0 205:0 206:0 207:0 208:0 209:0 210:1 211:1 212:1 213:1 214:0 215:0 216:1 217:1 218:1 219:1 220:0 221:0 222:0 223:0 224:0 225:0 226:0 227:0 228:0 229:1 230:1 231:1 232:1 233:1 234:1 235:1 236:1 237:1 238:1 239:0 240:0 241:0 242:0 243:0 244:0 245:0 246:0 247:0 248:0 249:1 250:1 251:1 252:1 253:1 254:1 255:1 256:1 257:0 258:0 259:0 260:0 261:0 262:0 263:0 264:0 265:0 266:0 267:0 268:1 269:1 270:1 271:1 272:1 273:1 274:0 275:0 276:0 277:0 278:0 279:0 280:0 281:0 282:0 283:0 284:0 285:0 286:0 287:0 288:0 289:0 290:0 291:0 292:0 293:0 294:0 295:0 296:0 297:0 298:0 299:0 300:0 301:0 302:0 303:0 304:0
0.3091122393660127 0 0.03415831326436937 0 0 0 0.3753948611777295 0 0 0 0 0 0 0 0 1.0741641314351 0.485746088354766 1:0 2:0 3:0 4:0 5:0 6:0 7:1 8:1 9:1 10:1 11:1 12:1 13:0 14:0 15:0 16:0 17:0 18:0 19:0 20:0 21:0 22:0 23:0 24:0 25:1 26:1 27:1 28:1 29:1 30:1 31:1 32:1 33:0 34:0 35:0 36:0 37:0 38:0 39:0 40:0 41:0 42:0 43:1 44:1 45:1 46:1 47:1 48:1 49:1 50:1 51:1 52:0 53:0 54:0 55:0 56:0 57:0 58:0 59:0 60:0 61:1 62:1 63:1 64:1 65:0 66:0 67:1 68:1 69:1 70:1 71:0 72:0 73:0 74:0 75:0 76:0 77:0 78:0 79:1 80:1 81:1 82:1 83:0 84:0 85:0 86:1 87:1 88:1 89:1 90:0 91:0 92:0 93:0 94:0 95:0 96:0 97:0 98:1 99:1 100:1 101:1 102:0 103:0 104:1 105:1 106:1 107:1 108:1 109:0 110:0 111:0 112:0 113:0 114:0 115:0 116:1 117:1 118:1 119:1 120:1 121:0 122:0 123:1 124:1 125:1 126:1 127:0 128:0 129:0 130:0 131:0 132:0 133:0 134:0 135:1 136:1 137:1 138:0 139:0 140:0 141:0 142:1 143:1 144:1 145:1 146:0 147:0 148:0 149:0 150:0 151:0 152:0 153:0 154:1 155:1 156:1 157:1 158:0 159:0 160:0 161:1 162:1 163:1 164:1 165:0 166:0 167:0 168:0 169:0 170:0 171:0 172:0 173:1 174:1 175:1 176:1 177:0 178:1 179:1 180:1 181:1 182:1 183:0 184:0 185:0 186:0 187:0 188:0 189:0 190:0 191:1 192:1 193:1 194:1 195:0 196:0 197:0 198:1 199:1 200:1 201:1 202:0 203:0 204:0 205:0 206:0 207:0 208:0 209:0 210:1 211:1 212:1 213:1 214:0 215:0 216:1 217:1 218:1 219:1 220:0 221:0 222:0 223:0 224:0 225:0 226:0 227:0 228:0 229:1 230:1 231:1 232:1 233:0 234:1 235:1 236:1 237:1 238:0 239:0 240:0 241:0 242:0 243:0 244:0 245:0 246:0 247:0 248:0 249:1 250:1 251:1 252:1 253:1 254:1 255:1 256:1 257:0 258:0 259:0 260:0 261:0 262:0 263:0 264:0 265:0 266:0 267:0 268:1 269:1 270:1 271:1 272:1 273:1 274:0 275:0 276:0 277:0 278:0 279:0 280:0 281:0 282:0 283:0 284:0 285:0 286:0 287:0 288:0 289:0 290:0 291:0 292:0 293:0 294:0 295:0 296:0 297:0 298:0 299:0 300:0 301:0 302:0 303:0 304:0
0 0 0 0 0.01429696696541275 0 0 0 0 0 0 0 0 0 0 0 0 1:0 2:0 3:0 4:0 5:0 6:0 7:1 8:1 9:1 10:1 11:1 12:1 13:0 14:0 15:0 16:0 17:0 18:0 19:0 20:0 21:0 22:0 23:0 24:0 25:1 26:1 27:1 28:1 29:1 30:1 31:1 32:1 33:0 34:0 35:0 36:0 37:0 38:0 39:0 40:0 41:0 42:0 43:1 44:1 45:1 46:1 47:0 48:1 49:1 50:1 51:1 52:0 53:0 54:0 55:0 56:0 57:0 58:0 59:0 60:0 61:1 62:1 63:1 64:1 65:0 66:0 67:1 68:1 69:1 70:1 71:0 72:0 73:0 74:0 75:0 76:0 77:0 78:0 79:1 80:1 81:1 82:1 83:0 84:0 85:0 86:1 87:1 88:1 89:1 90:0 91:0 92:0 93:0 94:0 95:0 96:0 97:0 98:1 99:1 100:1 101:1 102:0 103:0 104:0 105:1 106:1 107:1 108:1 109:0 110:0 111:0 112:0 113:0 114:0 115:0 116:1 117:1 118:1 119:1 120:1 121:0 122:0 123:1 124:1 125:1 126:1 127:0 128:0 129:0 130:0 131:0 132:0 133:0 134:0 135:1 136:1 137:1 138:1 139:0 140:0 141:0 142:1 143:1 144:1 145:1 146:0 147:0 148:0 149:0 150:0 151:0 152:0 153:0 154:1 155:1 156:1 157:1 158:0 159:0 160:1 161:1 162:1 163:1 164:1 165:0 166:0 167:0 168:0 169:0 170:0 171:0 172:0 173:1 174:1 175:1 176:0 177:0 178:0 179:1 180:1 181:1 182:1 183:0 184:0 185:0 186:0 187:0 188:0 189:0 190:0 191:1 192:1 193:1 194:1 195:0 196:0 197:0 198:1 199:1 200:1 201:1 202:0 203:0 204:0 205:0 206:0 207:0 208:0 209:0 210:1 211:1 212:1 213:1 214:1 215:0 216:1 217:1 218:1 219:1 220:0 221:0 222:0 223:0 224:0 225:0 226:0 227:0 228:0 229:1 230:1 231:1 232:1 233:1 234:1 235:1 236:1 237:1 238:1 239:0 240:0 241:0 242:0 243:0 244:0 245:0 246:0 247:0 248:0 249:1 250:1 251:1 252:1 253:1 254:1 255:1 256:1 257:0 258:0 259:0 260:0 261:0 262:0 263:0 264:0 265:0 266:0 267:0 268:1 269:1 270:1 271:1 272:1 273:1 274:0 275:0 276:0 277:0 278:0 279:0 280:0 281:0 282:0 283:0 284:0 285:0 286:0 287:0 288:0 289:0 290:0 291:0 292:0 293:0 294:0 295:0 296:0 297:0 298:0 299:0 300:0 301:0 302:0 303:0 304:0
0 0 2.697030174059095 0.9400522283882341 0 0 0 0 0 0 0 0 0 0 0 0 0 1:0 2:0 3:0 4:0 5:0 6:0 7:0 8:0 9:0 10:0 11:0 12:1 13:0 14:0 15:0 16:0 17:0 18:0 19:0 20:0 21:0 22:0 23:0 24:0 25:0 26:1 27:1 28:1 29:1 30:1 31:1 32:0 33:0 34:0 35:0 36:0 37:0 38:0 39:0 40:0 41:0 42:0 43:0 44:1 45:1 46:1 47:1 48:1 49:1 50:1 51:1 52:0 53:0 54:0 55:0 56:0 57:0 58:0 59:0 60:0 61:1 62:1 63:1 64:1 65:1 66:1 67:1 68:1 69:1 70:1 71:0 72:0 73:0 74:0 75:0 76:0 77:0 78:0 79:0 80:1 81:1 82:1 83:1 84:0 85:0 86:1 87:1 88:1 89:1 90:0 91:0 92:0 93:0 94:0 95:0 96:0 97:0 98:1 99:1 100:1 101:1 102:0 103:0 104:0 105:1 106:1 107:1 108:1 109:0 110:0 111:0 112:0 113:0 114:0 115:0 116:0 117:1 118:1 119:1 120:1 121:0 122:0 123:0 124:1 125:1 126:1 127:1 128:0 129:0 130:0 131:0 132:0 133:0 134:0 135:1 136:1 137:1 138:1 139:1 140:0 141:0 142:1 143:1 144:1 145:1 146:0 147:0 148:0 149:0 150:0 151:0 152:0 153:0 154:1 155:1 156:1 157:1 158:0 159:0 160:0 161:1 162:1 163:1 164:1 165:0 166:0 167:0 168:0 169:0 170:0 171:0 172:0 173:0 174:1 175:1 176:1 177:0 178:0 179:0 180:1 181:1 182:1 183:1 184:0 185:0 186:0 187:0 188:0 189:0 190:0 191:1 192:1 193:1 194:1 195:0 196:0 197:0 198:1 199:1 200:1 201:1 202:0 203:0 204:0 205:0 206:0 207:0 208:0 209:0 210:1 211:1 212:1 213:1 214:0 215:0 216:0 217:1 218:1 219:1 220:1 221:0 222:0 223:0 224:0 225:0 226:0 227:0 228:0 229:1 230:1 231:1 232:1 233:0 234:0 235:1 236:1 237:1 238:1 239:0 240:0 241:0 242:0 243:0 244:0 245:0 246:0 247:0 248:1 249:1 250:1 251:1 252:1 253:1 254:1 255:1 256:1 257:1 258:0 259:0 260:0 261:0 262:0 263:0 264:0 265:0 266:0 267:0 268:1 269:1 270:1 271:1 272:1 273:1 274:1 275:1 276:0 277:0 278:0 279:0 280:0 281:0 282:0 283:0 284:0 285:0 286:0 287:1 288:1 289:1 290:1 291:1 292:1 293:0 294:0 295:0 296:0 297:0 298:0 299:0 300:0 301:0 302:0 303:0 304:0
0 0 0 0 1.044105805213716 0.6066584677246003 1.398910248803642 0.2411521794498842 0 0.009660669044122994 0 2.331534598687524 0.4895079131460516 0.9064658264271742 0.1201519869562078 0.72314564812268 0 1:0 2:0 3:0 4:0 5:0 6:0 7:0 8:1 9:1 10:1 11:1 12:1 13:1 14:0 15:0 16:0 17:0 18:0 19:0 20:0 21:0 22:0 23:0 24:0 25:0 26:1 27:1 28:1 29:1 30:1 31:1 32:1 33:1 34:0 35:0 36:0 37:0 38:0 39:0 40:0 41:0 42:0 43:1 44:0 45:1 46:1 47:1 48:1 49:1 50:1 51:1 52:1 53:0 54:0 55:0 56:0 57:0 58:0 59:0 60:0 61:0 62:1 63:1 64:1 65:1 66:0 67:0 68:1 69:1 70:1 71:1 72:0 73:0 74:0 75:0 76:0 77:0 78:0 79:0 80:1 81:1 82:1 83:1 84:0 85:0 86:0 87:1 88:1 89:1 90:1 91:0 92:0 93:0 94:0 95:0 96:0 97:0 98:0 99:1 100:1 101:1 102:1 103:0 104:0 105:1 106:1 107:1 108:1 109:1 110:0 111:0 112:0 113:0 114:0 115:0 116:0 117:1 118:1 119:1 120:1 121:1 122:0 123:0 124:1 125:1 126:1 127:1 128:0 129:0 130:0 131:0 132:0 133:0 134:0 135:0 136:1 137:1 138:1 139:1 140:0 141:0 142:0 143:1 144:1 145:1 146:1 147:0 148:0 149:0 150:0 151:0 152:0 153:0 154:0 155:1 156:1 157:1 158:1 159:0 160:0 161:0 162:1 163:1 164:1 165:1 166:0 167:0 168:0 169:0 170:0 171:0 172:1 173:1 174:1 175:1 176:1 177:0 178:0 179:0 180:1 181:1 182:1 183:1 184:0 185:0 186:0 187:0 188:0 189:0 190:0 191:0 192:1 193:1 194:1 195:1 196:0 197:0 198:0 199:1 200:1 201:1 202:1 203:0 204:0 205:0 206:0 207:0 208:0 209:0 210:0 211:1 212:1 213:1 214:1 215:0 216:0 217:0 218:1 219:1 220:0 221:0 222:0 223:0 224:0 225:0 226:0 227:0 228:0 229:0 230:1 231:1 232:1 233:1 234:1 235:1 236:1 237:1 238:1 239:1 240:0 241:0 242:0 243:0 244:0 245:0 246:0 247:0 248:0 249:0 250:1 251:1 252:1 253:1 254:1 255:1 256:1 257:1 258:0 259:0 260:0 261:0 262:0 263:0 264:0 265:0 266:0 267:0 268:0 269:1 270:1 271:1 272:1 273:1 274:1 275:0 276:0 277:0 278:0 279:0 280:0 281:0 282:0 283:0 284:0 285:0 286:0 287:0 288:0 289:0 290:0 291:0 292:0 293:0 294:0 295:0 296:0 297:0 298:0 299:0 300:0 301:0 302:0 303:0 304:0
0.5287609395390737 0 1.270679760826541 0 0.3645115786511386 0.3726119966615126 0 0.9313822790061817 0 1.355089771165313 1.186100433353527 0.3146091675984807 0.2683779897948322 0 0 0.4327298213088042 0 1:0 2:0 3:0 4:0 5:0 6:0 7:0 8:1 9:1 10:1 11:1 12:1 13:0 14:0 15:0 16:0 17:0 18:0 19:0 20:0 21:0 22:0 23:0 24:0 25:0 26:1 27:1 28:1 29:1 30:1 31:1 32:1 33:1 34:0 35:0 36:0 37:0 38:0 39:0 40:0 41:0 42:0 43:0 44:1 45:1 46:1 47:1 48:1 49:1 50:1 51:1 52:1 53:0 54:0 55:0 56:0 57:0 58:0 59:0 60:0 61:0 62:1 63:1 64:1 65:1 66:0 67:0 68:1 69:1 70:1 71:1 72:0 73:0 74:0 75:0 76:0 77:0 78:0 79:0 80:1 81:1 82:1 83:1 84:0 85:0 86:0 87:1 88:1 89:1 90:1 91:0 92:0 93:0 94:0 95:0 96:0 97:0 98:0 99:1 100:1 101:1 102:1 103:1 104:0 105:0 106:1 107:1 108:1 109:1 110:0 111:0 112:0 113:0 114:0 115:0 116:0 117:1 118:1 119:1 120:1 121:0 122:0 123:0 124:1 125:1 126:1 127:1 128:1 129:0 130:0 131:0 132:0 133:0 134:0 135:0 136:1 137:1 138:1 139:1 140:0 141:0 142:0 143:1 144:1 145:1 146:1 147:0 148:0 149:0 150:0 151:0 152:0 153:0 154:0 155:1 156:1 157:1 158:1 159:0 160:0 161:0 162:1 163:1 164:1 165:1 166:0 167:0 168:0 169:0 170:0 171:0 172:0 173:0 174:1 175:1 176:1 177:0 178:0 179:0 180:1 181:1 182:1 183:1 184:0 185:0 186:0 187:0 188:0 189:0 190:0 191:0 192:1 193:1 194:1 195:1 196:0 197:0 198:0 199:1 200:1 201:1 202:1 203:0 204:0 205:0 206:0 207:0 208:0 209:0 210:0 211:1 212:1 213:1 214:1 215:0 216:0 217:1 218:1 219:1 220:1 221:0 222:0 223:0 224:0 225:0 226:0 227:0 228:0 229:1 230:1 231:1 232:1 233:1 234:1 235:1 236:1 237:1 238:1 239:1 240:0 241:0 242:0 243:0 244:0 245:0 246:0 247:0 248:0 249:0 250:1 251:1 252:1 253:1 254:1 255:1 256:1 257:1 258:0 259:0 260:0 261:0 262:0 263:0 264:0 265:0 266:0 267:0 268:0 269:1 270:1 271:1 272:1 273:1 274:1 275:0 276:0 277:0 278:0 279:0 280:0 281:0 282:0 283:0 284:0 285:0 286:0 287:0 288:0 289:0 290:0 291:0 292:0 293:0 294:0 295:0 296:0 297:0 298:0 299:0 300:0 301:0 302:0 303:0 304:0
0.2028446420532792 0 0 0 0 0 0 0 0.5136879915581368 0 0 0 0 0 0 0 0.7734467646281603 1:0 2:0 3:0 4:0 5:0 6:0 7:1 8:1 9:1 10:1 11:1 12:1 13:0 14:0 15:0 16:0 17:0 18:0 19:0 20:0 21:0 22:0 23:0 24:0 25:1 26:1 27:1 28:1 29:1 30:1 31:1 32:1 33:0 34:0 35:0 36:0 37:0 38:0 39:0 40:0 41:0 42:0 43:1 44:1 45:1 46:1 47:1 48:1 49:1 50:1 51:1 52:0 53:0 54:0 55:0 56:0 57:0 58:0 59:0 60:0 61:1 62:1 63:1 64:1 65:0 66:0 67:1 68:1 69:1 70:1 71:0 72:0 73:0 74:0 75:0 76:0 77:0 78:0 79:1 80:1 81:1 82:1 83:0 84:0 85:0 86:1 87:1 88:1 89:1 90:0 91:0 92:0 93:0 94:0 95:0 96:0 97:0 98:1 99:1 100:1 101:0 102:0 103:0 104:0 105:1 106:1 107:1 108:1 109:0 110:0 111:0 112:0 113:0 114:0 115:0 116:1 117:1 118:1 119:1 120:0 121:0 122:0 123:1 124:1 125:1 126:1 127:1 128:0 129:0 130:0 131:0 132:0 133:0 134:0 135:1 136:1 137:1 138:1 139:0 140:0 141:0 142:1 143:1 144:1 145:1 146:0 147:0 148:0 149:0 150:0 151:0 152:0 153:0 154:1 155:1 156:1 157:1 158:0 159:0 160:0 161:1 162:1 163:1 164:1 165:0 166:0 167:0 168:0 169:0 170:0 171:0 172:0 173:0 174:1 175:1 176:0 177:0 178:0 179:1 180:1 181:1 182:0 183:0 184:0 185:0 186:0 187:0 188:0 189:0 190:0 191:1 192:1 193:1 194:1 195:0 196:0 197:0 198:1 199:1 200:1 201:1 202:0 203:0 204:0 205:0 206:0 207:0 208:0 209:0 210:1 211:1 212:1 213:1 214:0 215:0 216:1 217:1 218:1 219:1 220:0 221:0 222:0 223:0 224:0 225:0 226:0 227:0 228:0 229:1 230:1 231:1 232:1 233:1 234:1 235:1 236:1 237:1 238:1 239:0 240:0 241:0 242:0 243:0 244:0 245:0 246:0 247:0 248:0 249:1 250:1 251:1 252:1 253:1 254:1 255:1 256:1 257:0 258:0 259:0 260:0 261:0 262:0 263:0 264:0 265:0 266:0 267:0 268:1 269:1 270:1 271:1 272:1 273:1 274:0 275:0 276:0 277:0 278:0 279:0 280:0 281:0 282:0 283:0 284:0 285:0 286:0 287:0 288:0 289:0 290:0 291:0 292:0 293:0 294:0 295:0 296:0 297:0 298:0 299:0 300:0 301:0 302:0 303:0 304:0
0 0 0.9271286668713203 0 0 0 0 0 0 0 0 0 0 0 0 0 0 1:0 2:0 3:0 4:0 5:0 6:0 7:1 8:1 9:1 10:1 11:1 12:1 13:0 14:0 15:0 16:0 17:0 18:0 19:0 20:0 21:0 22:0 23:0 24:0 25:1 26:1 27:1 28:1 29:1 30:1 31:1 32:1 33:0 34:0 35:0 36:0 37:0 38:0 39:0 40:0 41:0 42:0 43:1 44:1 45:1 46:1 47:1 48:1 49:1 50:1 51:1 52:0 53:0 54:0 55:0 56:0 57:0 58:0 59:0 60:0 61:1 62:1 63:1 64:1 65:0 66:0 67:1 68:1 69:1 70:1 71:0 72:0 73:0 74:0 75:0 76:0 77:0 78:0 79:1 80:1 81:1 82:1 83:0 84:0 85:0 86:1 87:1 88:1 89:0 90:0 91:0 92:0 93:0 94:0 95:0 96:0 97:0 98:1 99:1 100:1 101:1 102:0 103:0 104:0 105:1 106:1 107:1 108:1 109:0 110:0 111:0 112:0 113:0 114:0 115:0 116:1 117:1 118:1 119:1 120:1 121:0 122:0 123:1 124:1 125:1 126:1 127:0 128:0 129:0 130:0 131:0 132:0 133:0 134:0 135:1 136:1 137:1 138:1 139:0 140:0 141:0 142:1 143:1 144:1 145:1 146:0 147:0 148:0 149:0 150:0 151:0 152:0 153:0 154:1 155:1 156:1 157:1 158:0 159:0 160:1 161:1 162:1 163:1 164:1 165:0 166:0 167:0 168:0 169:0 170:0 171:0 172:0 173:1 174:1 175:1 176:0 177:0 178:0 179:1 180:1 181:1 182:1 183:0 184:0 185:0 186:0 187:0 188:0 189:0 190:0 191:1 192:1 193:1 194:1 195:0 196:0 197:0 198:1 199:1 200:1 201:1 202:0 203:0 204:0 205:0 206:0 207:0 208:0 209:0 210:1 211:1 212:1 213:1 214:0 215:0 216:1 217:1 218:1 219:1 220:0 221:0 222:0 223:0 224:0 225:0 226:0 227:0 228:0 229:1 230:1 231:1 232:1 233:1 234:1 235:1 236:1 237:1 238:1 239:0 240:0 241:0 242:0 243:0 244:0 245:0 246:0 247:0 248:0 249:1 250:1 251:1 252:1 253:1 254:1 255:1 256:1 257:0 258:0 259:0 260:0 261:0 262:0 263:0 264:0 265:0 266:0 267:0 268:1 269:1 270:1 271:1 272:1 273:1 274:0 275:0 276:0 277:0 278:0 279:0 280:0 281:0 282:0 283:0 284:0 285:0 286:0 287:0 288:0 289:0 290:0 291:0 292:0 293:0 294:0 295:0 296:0 297:0 298:0 299:0 300:0 301:0 302:0 303:0 304:0
0 1.673622263557194 0 0 0 0 0 0 0 0 0 0 0 0 0 0 0 1:0 2:0 3:0 4:0 5:0 6:0 7:1 8:1 9:1 10:1 11:1 12:1 13:0 14:0 15:0 16:0 17:0 18:0 19:0 20:0 21:0 22:0 23:0 24:0 25:1 26:1 27:1 28:1 29:1 30:1 31:1 32:1 33:0 34:0 35:0 36:0 37:0 38:0 39:0 40:0 41:0 42:0 43:1 44:1 45:1 46:0 47:1 48:1 49:1 50:1 51:1 52:0 53:0 54:0 55:0 56:0 57:0 58:0 59:0 60:0 61:1 62:1 63:1 64:1 65:0 66:0 67:1 68:1 69:1 70:1 71:0 72:0 73:0 74:0 75:0 76:0 77:0 78:0 79:1 80:1 81:1 82:1 83:0 84:0 85:0 86:1 87:1 88:1 89:1 90:0 91:0 92:0 93:0 94:0 95:0 96:0 97:0 98:1 99:1 100:1 101:1 102:0 103:0 104:1 105:1 106:1 107:1 108:1 109:0 110:0 111:0 112:0 113:0 114:0 115:0 116:1 117:1 118:1 119:1 120:1 121:0 122:0 123:1 124:1 125:1 126:1 127:0 128:0 129:0 130:0 131:0 132:0 133:0 134:0 135:1 136:1 137:1 138:1 139:0 140:0 141:0 142:1 143:1 144:1 145:1 146:0 147:0 148:0 149:0 150:0 151:0 152:0 153:0 154:1 155:1 156:1 157:1 158:0 159:0 160:0 161:1 162:1 163:1 164:1 165:0 166:0 167:0 168:0 169:0 170:0 171:0 172:1 173:1 174:1 175:1 176:1 177:0 178:1 179:1 180:1 181:1 182:1 183:0 184:0 185:0 186:0 187:0 188:0 189:0 190:0 191:1 192:1 193:1 194:1 195:0 196:0 197:0 198:1 199:1 200:1 201:1 202:0 203:0 204:0 205:0 206:0 207:0 208:0 209:0 210:1 211:1 212:1 213:1 214:0 215:0 216:1 217:1 218:1 219:1 220:0 221:0 222:0 223:0 224:0 225:0 226:0 227:0 228:0 229:1 230:1 231:1 232:1 233:1 234:1 235:1 236:1 237:1 238:1 239:0 240:0 241:0 242:0 243:0 244:0 245:0 246:0 247:0 248:0 249:1 250:1 251:1 252:1 253:1 254:1 255:1 256:1 257:0 258:0 259:0 260:0 261:0 262:0 263:0 264:0 265:0 266:0 267:0 268:1 269:1 270:1 271:1 272:1 273:1 274:0 275:0 276:0 277:0 278:0 279:0 280:0 281:0 282:0 283:0 284:0 285:0 286:0 287:0 288:0 289:0 290:0 291:0 292:0 293:0 294:0 295:0 296:0 297:0 298:0 299:0 300:0 301:0 302:0 303:0 304:0
0 0 3.770700768190008 7.68129748634466 0 0 0 0 0 0 0 0 0 0 0 0 0 1:0 2:0 3:0 4:0 5:0 6:0 7:0 8:0 9:1 10:0 11:0 12:0 13:0 14:0 15:0 16:0 17:0 18:0 19:0 20:0 21:0 22:0 23:0 24:0 25:0 26:1 27:1 28:1 29:1 30:1 31:1 32:0 33:0 34:0 35:0 36:0 37:0 38:0 39:0 40:0 41:0 42:0 43:1 44:1 45:1 46:1 47:1 48:1 49:1 50:1 51:1 52:0 53:0 54:0 55:0 56:0 57:0 58:0 59:0 60:0 61:1 62:1 63:1 64:1 65:1 66:1 67:1 68:1 69:1 70:1 71:0 72:0 73:0 74:0 75:0 76:0 77:0 78:0 79:0 80:1 81:1 82:1 83:1 84:0 85:0 86:1 87:1 88:1 89:1 90:0 91:0 92:0 93:0 94:0 95:0 96:0 97:0 98:1 99:1 100:1 101:1 102:0 103:0 104:0 105:1 106:1 107:1 108:1 109:0 110:0 111:0 112:0 113:0 114:0 115:0 116:0 117:1 118:1 119:1 120:1 121:0 122:0 123:1 124:1 125:1 126:1 127:1 128:0 129:0 130:0 131:0 132:0 133:0 134:0 135:1 136:1 137:1 138:1 139:1 140:0 141:0 142:1 143:1 144:1 145:1 146:0 147:0 148:0 149:0 150:0 151:0 152:0 153:0 154:0 155:1 156:1 157:1 158:0 159:0 160:0 161:1 162:1 163:1 164:1 165:0 166:0 167:0 168:0 169:0 170:0 171:0 172:0 173:1 174:1 175:1 176:1 177:0 178:0 179:0 180:1 181:1 182:1 183:1 184:0 185:0 186:0 187:0 188:0 189:0 190:0 191:0 192:1 193:1 194:1 195:1 196:0 197:0 198:1 199:1 200:1 201:1 202:0 203:0 204:0 205:0 206:0 207:0 208:0 209:0 210:1 211:1 212:1 213:1 214:0 215:0 216:0 217:1 218:1 219:1 220:1 221:0 222:0 223:0 224:0 225:0 226:0 227:0 228:0 229:1 230:1 231:1 232:1 233:0 234:0 235:1 236:1 237:1 238:1 239:0 240:0 241:0 242:0 243:0 244:0 245:0 246:0 247:0 248:1 249:1 250:1 251:1 252:1 253:1 254:1 255:1 256:1 257:1 258:0 259:0 260:0 261:0 262:0 263:0 264:0 265:0 266:0 267:0 268:1 269:1 270:1 271:1 272:1 273:1 274:1 275:1 276:0 277:0 278:0 279:0 280:0 281:0 282:0 283:0 284:0 285:0 286:0 287:1 288:1 289:1 290:1 291:1 292:1 293:0 294:0 295:0 296:0 297:0 298:0 299:0 300:0 301:0 302:0 303:0 304:0
0 0 0 0 0 0 0 0 0.5854704479918347 0 0 0 0 0 0 0 0 1:0 2:0 3:0 4:0 5:0 6:0 7:0 8:0 9:0 10:0 11:1 12:0 13:0 14:0 15:0 16:0 17:0 18:0 19:0 20:0 21:0 22:0 23:0 24:0 25:0 26:1 27:1 28:1 29:1 30:1 31:1 32:0 33:0 34:0 35:0 36:0 37:0 38:0 39:0 40:0 41:0 42:0 43:0 44:1 45:1 46:1 47:1 48:1 49:1 50:1 51:1 52:0 53:0 54:0 55:0 56:0 57:0 58:0 59:0 60:0 61:0 62:1 63:1 64:1 65:1 66:1 67:1 68:1 69:1 70:1 71:0 72:0 73:0 74:0 75:0 76:0 77:0 78:0 79:0 80:1 81:1 82:1 83:1 84:0 85:0 86:1 87:1 88:1 89:1 90:0 91:0 92:0 93:0 94:0 95:0 96:0 97:0 98:1 99:1 100:1 101:1 102:0 103:0 104:0 105:1 106:1 107:1 108:1 109:0 110:0 111:0 112:0 113:0 114:0 115:0 116:0 117:1 118:1 119:1 120:1 121:0 122:0 123:0 124:1 125:1 126:1 127:1 128:0 129:0 130:0 131:0 132:0 133:0 134:0 135:1 136:1 137:1 138:1 139:0 140:0 141:0 142:1 143:1 144:1 145:1 146:1 147:0 148:0 149:0 150:0 151:0 152:0 153:0 154:1 155:1 156:1 157:1 158:0 159:0 160:0 161:1 162:1 163:1 164:1 165:0 166:0 167:0 168:0 169:0 170:0 171:0 172:0 173:1 174:1 175:1 176:1 177:0 178:0 179:0 180:1 181:1 182:1 183:1 184:0 185:0 186:0 187:0 188:0 189:0 190:0 191:0 192:1 193:1 194:1 195:0 196:0 197:0 198:1 199:1 200:1 201:1 202:0 203:0 204:0 205:0 206:0 207:0 208:0 209:0 210:1 211:1 212:1 213:0 214:0 215:0 216:0 217:0 218:1 219:1 220:1 221:0 222:0 223:0 224:0 225:0 226:0 227:0 228:0 229:1 230:1 231:1 232:1 233:0 234:0 235:1 236:1 237:1 238:1 239:0 240:0 241:0 242:0 243:0 244:0 245:0 246:0 247:0 248:1 249:1 250:1 251:1 252:1 253:1 254:1 255:1 256:1 257:1 258:0 259:0 260:0 261:0 262:0 263:0 264:0 265:0 266:0 267:0 268:1 269:1 270:1 271:1 272:1 273:1 274:1 275:1 276:0 277:0 278:0 279:0 280:0 281:0 282:0 283:0 284:0 285:0 286:0 287:1 288:1 289:1 290:1 291:1 292:1 293:0 294:0 295:0 296:0 297:0 298:0 299:0 300:0 301:0 302:0 303:0 304:0
0.8426940299221662 0.47394160447242 0.1461501871934187 0.4733637688245128 0.9354168064996346 1.38513588297497 0.6366015707954925 0 3.20229211213176 0.1277647312801171 0 0.4484304429478644 0.405491488043308 0.496809008373832 0.0601626173934661 0.08792221442269745 1.207342196455179 1:0 2:0 3:0 4:0 5:0 6:0 7:0 8:1 9:1 10:1 11:1 12:1 13:1 14:1 15:0 16:0 17:0 18:0 19:0 20:0 21:0 22:0 23:0 24:0 25:0 26:1 27:1 28:1 29:1 30:1 31:1 32:1 33:1 34:0 35:0 36:0 37:0 38:0 39:0 40:0 41:0 42:0 43:0 44:0 45:1 46:1 47:1 48:1 49:1 50:1 51:1 52:1 53:0 54:0 55:0 56:0 57:0 58:0 59:0 60:0 61:0 62:1 63:1 64:1 65:1 66:0 67:0 68:1 69:1 70:1 71:1 72:0 73:0 74:0 75:0 76:0 77:0 78:0 79:0 80:1 81:1 82:1 83:1 84:0 85:0 86:0 87:1 88:1 89:1 90:1 91:0 92:0 93:0 94:0 95:0 96:0 97:0 98:0 99:1 100:1 101:1 102:1 103:0 104:0 105:0 106:1 107:1 108:1 109:1 110:0 111:0 112:0 113:0 114:0 115:0 116:0 117:1 118:1 119:1 120:1 121:0 122:0 123:0 124:1 125:1 126:1 127:0 128:1 129:0 130:0 131:0 132:0 133:0 134:0 135:0 136:1 137:1 138:1 139:1 140:0 141:0 142:0 143:1 144:1 145:1 146:1 147:0 148:0 149:0 150:0 151:0 152:0 153:0 154:0 155:1 156:1 157:1 158:1 159:0 160:0 161:0 162:1 163:1 164:1 165:1 166:0 167:0 168:0 169:0 170:0 171:0 172:0 173:0 174:1 175:1 176:1 177:0 178:0 179:0 180:1 181:1 182:1 183:1 184:0 185:0 186:0 187:0 188:0 189:0 190:0 191:0 192:1 193:1 194:1 195:1 196:0 197:0 198:0 199:1 200:1 201:1 202:1 203:0 204:0 205:0 206:0 207:0 208:0 209:0 210:0 211:1 212:1 213:1 214:1 215:0 216:0 217:1 218:1 219:1 220:1 221:0 222:0 223:0 224:0 225:0 226:0 227:0 228:0 229:1 230:1 231:1 232:1 233:1 234:1 235:1 236:1 237:1 238:1 239:1 240:0 241:0 242:0 243:0 244:0 245:0 246:0 247:0 248:0 249:0 250:1 251:1 252:1 253:1 254:1 255:1 256:1 257:1 258:0 259:0 260:0 261:0 262:0 263:0 264:0 265:0 266:0 267:0 268:0 269:1 270:1 271:1 272:1 273:1 274:1 275:0 276:0 277:0 278:0 279:0 280:0 281:0 282:0 283:0 284:0 285:0 286:0 287:0 288:0 289:0 290:0 291:0 292:0 293:0 294:0 295:0 296:0 297:0 298:0 299:0 300:0 301:0 302:0 303:0 304:0
0 0.2146390697047899 0 0 0 0 0 0 0 0 0 0 0 0 0 0 0 1:0 2:0 3:0 4:0 5:0 6:0 7:0 8:0 9:0 10:0 11:1 12:0 13:0 14:0 15:0 16:0 17:0 18:0 19:0 20:0 21:0 22:0 23:0 24:0 25:0 26:1 27:1 28:1 29:1 30:1 31:1 32:0 33:0 34:0 35:0 36:0 37:0 38:0 39:0 40:0 41:0 42:0 43:0 44:1 45:1 46:1 47:1 48:1 49:1 50:1 51:1 52:0 53:0 54:0 55:0 56:0 57:0 58:0 59:0 60:0 61:1 62:1 63:1 64:1 65:1 66:1 67:1 68:1 69:1 70:1 71:0 72:0 73:0 74:0 75:0 76:0 77:0 78:0 79:0 80:1 81:1 82:1 83:1 84:0 85:0 86:1 87:1 88:1 89:1 90:0 91:0 92:0 93:0 94:0 95:0 96:0 97:0 98:1 99:1 100:1 101:1 102:0 103:0 104:0 105:1 106:1 107:1 108:1 109:0 110:0 111:0 112:0 113:0 114:0 115:0 116:0 117:1 118:1 119:1 120:1 121:0 122:0 123:0 124:1 125:1 126:1 127:1 128:0 129:0 130:0 131:0 132:0 133:0 134:0 135:1 136:1 137:1 138:1 139:1 140:0 141:0 142:1 143:1 144:1 145:1 146:0 147:0 148:0 149:0 150:0 151:0 152:0 153:0 154:1 155:1 156:1 157:1 158:0 159:0 160:0 161:1 162:1 163:1 164:1 165:0 166:0 167:0 168:0 169:0 170:0 171:0 172:0 173:1 174:1 175:1 176:1 177:0 178:0 179:0 180:1 181:1 182:1 183:1 184:0 185:0 186:0 187:0 188:0 189:0 190:0 191:1 192:1 193:1 194:1 195:0 196:0 197:0 198:1 199:1 200:1 201:1 202:0 203:0 204:0 205:0 206:0 207:0 208:0 209:0 210:1 211:1 212:1 213:1 214:0 215:0 216:0 217:1 218:1 219:1 220:1 221:0 222:0 223:0 224:0 225:0 226:0 227:0 228:0 229:1 230:1 231:1 232:1 233:0 234:0 235:1 236:1 237:1 238:1 239:0 240:0 241:0 242:0 243:0 244:0 245:0 246:0 247:0 248:1 249:1 250:1 251:1 252:1 253:1 254:1 255:1 256:1 257:1 258:0 259:0 260:0 261:0 262:0 263:0 264:0 265:0 266:0 267:0 268:1 269:1 270:1 271:1 272:1 273:1 274:1 275:1 276:0 277:0 278:0 279:0 280:0 281:0 282:0 283:0 284:0 285:0 286:0 287:1 288:1 289:1 290:1 291:1 292:1 293:0 294:0 295:0 296:0 297:0 298:0 299:0 300:0 301:0 302:0 303:0 304:0
0 0 0 0 0 0 0.08173116831811232 0.2876608645972221 0 0 0.5164148002745064 0 0 0 0 0.5891056911180418 0 1:0 2:0 3:0 4:0 5:0 6:0 7:1 8:1 9:1 10:1 11:0 12:1 13:0 14:0 15:0 16:0 17:0 18:0 19:0 20:0 21:0 22:0 23:0 24:0 25:1 26:1 27:1 28:1 29:1 30:1 31:1 32:0 33:0 34:0 35:0 36:0 37:0 38:0 39:0 40:0 41:0 42:0 43:1 44:1 45:1 46:1 47:1 48:1 49:1 50:1 51:0 52:0 53:0 54:0 55:0 56:0 57:0 58:0 59:0 60:0 61:1 62:1 63:1 64:1 65:0 66:0 67:1 68:1 69:1 70:0 71:0 72:0 73:0 74:0 75:0 76:0 77:0 78:0 79:1 80:1 81:1 82:1 83:0 84:0 85:0 86:1 87:1 88:1 89:0 90:0 91:0 92:0 93:0 94:0 95:0 96:0 97:0 98:1 99:1 100:1 101:1 102:0 103:0 104:1 105:1 106:1 107:1 108:0 109:0 110:0 111:0 112:0 113:0 114:0 115:0 116:1 117:1 118:1 119:1 120:1 121:0 122:0 123:1 124:1 125:1 126:1 127:0 128:0 129:0 130:0 131:0 132:0 133:0 134:0 135:1 136:1 137:1 138:1 139:0 140:0 141:0 142:1 143:1 144:1 145:1 146:0 147:0 148:0 149:0 150:0 151:0 152:0 153:0 154:1 155:1 156:1 157:1 158:0 159:0 160:0 161:1 162:1 163:1 164:1 165:0 166:0 167:0 168:0 169:0 170:0 171:0 172:0 173:1 174:1 175:0 176:0 177:0 178:0 179:1 180:1 181:1 182:1 183:0 184:0 185:0 186:0 187:0 188:0 189:0 190:0 191:1 192:1 193:1 194:1 195:0 196:0 197:0 198:1 199:1 200:1 201:1 202:0 203:0 204:0 205:0 206:0 207:0 208:0 209:0 210:1 211:1 212:1 213:1 214:0 215:0 216:1 217:1 218:1 219:1 220:0 221:0 222:0 223:0 224:0 225:0 226:0 227:0 228:0 229:1 230:1 231:1 232:1 233:1 234:1 235:1 236:1 237:1 238:1 239:0 240:0 241:0 242:0 243:0 244:0 245:0 246:0 247:0 248:0 249:1 250:1 251:1 252:1 253:1 254:1 255:1 256:1 257:0 258:0 259:0 260:0 261:0 262:0 263:0 264:0 265:0 266:0 267:1 268:1 269:1 270:1 271:1 272:1 273:1 274:0 275:0 276:0 277:0 278:0 279:0 280:0 281:0 282:0 283:0 284:0 285:0 286:0 287:0 288:0 289:0 290:0 291:0 292:0 293:0 294:0 295:0 296:0 297:0 298:0 299:0 300:0 301:0 302:0 303:0 304:0
0 0.219971258129515 0 0 0 0 0 0 0 0 0 0 0 0 0 0 0 1:0 2:0 3:0 4:0 5:0 6:0 7:1 8:1 9:1 10:1 11:1 12:1 13:0 14:0 15:0 16:0 17:0 18:0 19:0 20:0 21:0 22:0 23:0 24:0 25:1 26:1 27:1 28:1 29:1 30:1 31:1 32:1 33:0 34:0 35:0 36:0 37:0 38:0 39:0 40:0 41:0 42:0 43:1 44:1 45:1 46:1 47:1 48:1 49:1 50:1 51:1 52:0 53:0 54:0 55:0 56:0 57:0 58:0 59:0 60:0 61:1 62:1 63:1 64:1 65:0 66:0 67:1 68:1 69:1 70:1 71:0 72:0 73:0 74:0 75:0 76:0 77:0 78:0 79:1 80:1 81:1 82:1 83:0 84:0 85:0 86:1 87:1 88:1 89:1 90:0 91:0 92:0 93:0 94:0 95:0 96:0 97:0 98:1 99:1 100:1 101:1 102:0 103:0 104:1 105:1 106:1 107:1 108:1 109:0 110:0 111:0 112:0 113:0 114:0 115:0 116:1 117:1 118:1 119:1 120:1 121:0 122:0 123:1 124:1 125:1 126:1 127:0 128:0 129:0 130:0 131:0 132:0 133:0 134:0 135:1 136:1 137:1 138:1 139:0 140:0 141:0 142:1 143:1 144:1 145:1 146:0 147:0 148:0 149:0 150:0 151:0 152:0 153:0 154:1 155:1 156:1 157:1 158:0 159:0 160:0 161:1 162:1 163:1 164:1 165:0 166:0 167:0 168:0 169:0 170:0 171:0 172:1 173:1 174:1 175:1 176:0 177:0 178:0 179:1 180:1 181:1 182:1 183:0 184:0 185:0 186:0 187:0 188:0 189:0 190:0 191:1 192:1 193:1 194:1 195:0 196:0 197:1 198:1 199:1 200:1 201:1 202:0 203:0 204:0 205:0 206:0 207:0 208:0 209:0 210:1 211:1 212:1 213:1 214:0 215:0 216:1 217:1 218:1 219:1 220:0 221:0 222:0 223:0 224:0 225:0 226:0 227:0 228:0 229:1 230:1 231:1 232:1 233:1 234:1 235:1 236:1 237:1 238:1 239:0 240:0 241:0 242:0 243:0 244:0 245:0 246:0 247:0 248:0 249:1 250:1 251:1 252:1 253:1 254:1 255:1 256:0 257:0 258:0 259:0 260:0 261:0 262:0 263:0 264:0 265:0 266:0 267:0 268:1 269:1 270:1 271:1 272:1 273:1 274:0 275:0 276:0 277:0 278:0 279:0 280:0 281:0 282:0 283:0 284:0 285:0 286:0 287:0 288:0 289:0 290:0 291:0 292:0 293:0 294:0 295:0 296:0 297:0 298:0 299:0 300:0 301:0 302:0 303:0 304:0
0.3341153888738571 0 0 0 0 0 0 0 0 0 0 0 0 0 0 0 0 1:0 2:0 3:0 4:0 5:0 6:0 7:1 8:1 9:1 10:1 11:1 12:1 13:0 14:0 15:0 16:0 17:0 18:0 19:0 20:0 21:0 22:0 23:0 24:0 25:1 26:1 27:1 28:1 29:1 30:1 31:0 32:1 33:0 34:0 35:0 36:0 37:0 38:0 39:0 40:0 41:0 42:0 43:1 44:1 45:1 46:1 47:1 48:1 49:1 50:1 51:1 52:0 53:0 54:0 55:0 56:0 57:0 58:0 59:0 60:0 61:1 62:1 63:1 64:1 65:0 66:0 67:1 68:1 69:1 70:1 71:0 72:0 73:0 74:0 75:0 76:0 77:0 78:0 79:1 80:1 81:1 82:1 83:0 84:0 85:0 86:1 87:1 88:1 89:1 90:0 91:0 92:0 93:0 94:0 95:0 96:0 97:0 98:1 99:1 100:1 101:1 102:0 103:0 104:0 105:1 106:1 107:1 108:1 109:0 110:0 111:0 112:0 113:0 114:0 115:1 116:1 117:1 118:1 119:1 120:0 121:0 122:0 123:1 124:1 125:1 126:1 127:1 128:0 129:0 130:0 131:0 132:0 133:0 134:0 135:1 136:1 137:1 138:1 139:0 140:0 141:0 142:1 143:1 144:1 145:1 146:0 147:0 148:0 149:0 150:0 151:0 152:0 153:0 154:1 155:1 156:1 157:1 158:0 159:0 160:0 161:1 162:1 163:1 164:1 165:0 166:0 167:0 168:0 169:0 170:0 171:0 172:0 173:1 174:1 175:1 176:0 177:0 178:0 179:1 180:1 181:1 182:1 183:0 184:0 185:0 186:0 187:0 188:0 189:0 190:0 191:1 192:1 193:1 194:1 195:0 196:0 197:1 198:1 199:1 200:1 201:1 202:0 203:0 204:0 205:0 206:0 207:0 208:0 209:0 210:1 211:1 212:1 213:1 214:0 215:0 216:1 217:1 218:1 219:1 220:0 221:0 222:0 223:0 224:0 225:0 226:0 227:0 228:0 229:1 230:1 231:1 232:1 233:1 234:1 235:1 236:1 237:1 238:1 239:0 240:0 241:0 242:0 243:0 244:0 245:0 246:0 247:0 248:0 249:1 250:1 251:1 252:1 253:1 254:1 255:1 256:1 257:0 258:0 259:0 260:0 261:0 262:0 263:0 264:0 265:0 266:0 267:1 268:1 269:1 270:1 271:1 272:1 273:1 274:0 275:0 276:0 277:0 278:0 279:0 280:0 281:0 282:0 283:0 284:0 285:0 286:0 287:0 288:0 289:0 290:0 291:0 292:0 293:0 294:0 295:0 296:0 297:0 298:0 299:0 300:0 301:0 302:0 303:0 304:0
0 0.1314223076212762 0 0 0 0 0 0 0 0 0 0 0 0 0 0.02035090211489054 0 1:0 2:0 3:0 4:0 5:0 6:0 7:1 8:1 9:1 10:1 11:1 12:1 13:0 14:0 15:0 16:0 17:0 18:0 19:0 20:0 21:0 22:0 23:0 24:0 25:1 26:1 27:1 28:1 29:1 30:1 31:1 32:1 33:0 34:0 35:0 36:0 37:0 38:0 39:0 40:0 41:0 42:0 43:1 44:1 45:1 46:1 47:1 48:1 49:1 50:1 51:1 52:0 53:0 54:0 55:0 56:0 57:0 58:0 59:0 60:0 61:1 62:1 63:1 64:1 65:0 66:0 67:1 68:1 69:1 70:1 71:0 72:0 73:0 74:0 75:0 76:0 77:0 78:0 79:1 80:1 81:1 82:1 83:0 84:0 85:0 86:1 87:1 88:1 89:1 90:0 91:0 92:0 93:0 94:0 95:0 96:0 97:0 98:1 99:1 100:1 101:1 102:0 103:0 104:0 105:1 106:1 107:1 108:1 109:0 110:0 111:0 112:0 113:0 114:0 115:0 116:1 117:1 118:1 119:1 120:0 121:0 122:0 123:1 124:1 125:1 126:1 127:1 128:0 129:0 130:0 131:0 132:0 133:0 134:0 135:1 136:1 137:1 138:1 139:0 140:0 141:0 142:1 143:1 144:1 145:1 146:0 147:0 148:0 149:0 150:0 151:0 152:0 153:0 154:1 155:1 156:1 157:1 158:0 159:0 160:0 161:1 162:1 163:1 164:1 165:1 166:0 167:0 168:0 169:0 170:0 171:0 172:0 173:1 174:1 175:1 176:0 177:0 178:0 179:1 180:1 181:1 182:1 183:0 184:0 185:0 186:0 187:0 188:0 189:0 190:0 191:1 192:1 193:1 194:1 195:1 196:0 197:0 198:1 199:1 200:1 201:0 202:0 203:0 204:0 205:0 206:0 207:0 208:0 209:0 210:1 211:1 212:1 213:0 214:0 215:0 216:1 217:1 218:1 219:1 220:0 221:0 222:0 223:0 224:0 225:0 226:0 227:0 228:0 229:1 230:1 231:1 232:1 233:1 234:1 235:1 236:1 237:1 238:1 239:0 240:0 241:0 242:0 243:0 244:0 245:0 246:0 247:0 248:0 249:1 250:1 251:1 252:0 253:1 254:1 255:1 256:1 257:0 258:0 259:0 260:0 261:0 262:0 263:0 264:0 265:0 266:0 267:0 268:1 269:1 270:1 271:0 272:1 273:1 274:0 275:0 276:0 277:0 278:0 279:0 280:0 281:0 282:0 283:0 284:0 285:0 286:0 287:0 288:0 289:0 290:0 291:0 292:0 293:0 294:0 295:0 296:0 297:0 298:0 299:0 300:0 301:0 302:0 303:0 304:0
0.6506238651431819 0.2561847050246477 0 3.641874788360466 0.09840721019128004 0 0.07039536514436547 0 0.08157941149578465 0 0 0 0.2129540432004502 0 0 0.1505390245543182 0.4591958172753142 1:0 2:0 3:0 4:0 5:0 6:0 7:1 8:1 9:1 10:1 11:1 12:1 13:0 14:0 15:0 16:0 17:0 18:0 19:0 20:0 21:0 22:0 23:0 24:0 25:1 26:1 27:1 28:1 29:1 30:1 31:1 32:1 33:0 34:0 35:0 36:0 37:0 38:0 39:0 40:0 41:0 42:0 43:1 44:1 45:1 46:1 47:1 48:1 49:1 50:1 51:1 52:0 53:0 54:0 55:0 56:0 57:0 58:0 59:0 60:0 61:1 62:1 63:1 64:1 65:0 66:0 67:1 68:1 69:1 70:1 71:0 72:0 73:0 74:0 75:0 76:0 77:0 78:0 79:1 80:1 81:1 82:1 83:0 84:0 85:1 86:1 87:1 88:1 89:1 90:0 91:0 92:0 93:0 94:0 95:0 96:0 97:0 98:1 99:1 100:1 101:1 102:0 103:0 104:0 105:1 106:1 107:1 108:1 109:0 110:0 111:0 112:0 113:0 114:0 115:0 116:1 117:1 118:1 119:1 120:1 121:0 122:0 123:1 124:1 125:1 126:1 127:0 128:0 129:0 130:0 131:0 132:0 133:0 134:0 135:0 136:0 137:1 138:1 139:0 140:0 141:0 142:1 143:1 144:1 145:1 146:0 147:0 148:0 149:0 150:0 151:0 152:0 153:1 154:1 155:1 156:1 157:1 158:0 159:0 160:1 161:1 162:1 163:1 164:1 165:0 166:0 167:0 168:0 169:0 170:0 171:0 172:1 173:1 174:1 175:1 176:0 177:0 178:0 179:1 180:1 181:1 182:1 183:0 184:0 185:0 186:0 187:0 188:0 189:0 190:0 191:1 192:1 193:1 194:1 195:0 196:0 197:0 198:1 199:1 200:1 201:1 202:0 203:0 204:0 205:0 206:0 207:0 208:0 209:0 210:1 211:1 212:1 213:1 214:0 215:0 216:1 217:1 218:1 219:1 220:0 221:0 222:0 223:0 224:0 225:0 226:0 227:0 228:0 229:1 230:1 231:1 232:1 233:1 234:1 235:1 236:1 237:1 238:1 239:0 240:0 241:0 242:0 243:0 244:0 245:0 246:0 247:0 248:0 249:1 250:1 251:1 252:1 253:1 254:1 255:1 256:1 257:0 258:0 259:0 260:0 261:0 262:0 263:0 264:0 265:0 266:0 267:0 268:1 269:1 270:1 271:1 272:1 273:1 274:0 275:0 276:0 277:0 278:0 279:0 280:0 281:0 282:0 283:0 284:0 285:0 286:0 287:0 288:1 289:0 290:0 291:0 292:0 293:0 294:0 295:0 296:0 297:0 298:0 299:0 300:0 301:0 302:0 303:0 304:0
0 0 0.1236104685631916 1.697389792178029 0 0 0 0 0 0 0 0.08333478928019232 0 0 0 0 0 1:0 2:0 3:0 4:0 5:0 6:0 7:1 8:1 9:1 10:1 11:1 12:1 13:0 14:0 15:0 16:0 17:0 18:0 19:0 20:0 21:0 22:0 23:0 24:0 25:1 26:1 27:1 28:1 29:1 30:1 31:1 32:1 33:0 34:0 35:0 36:0 37:0 38:0 39:0 40:0 41:0 42:0 43:1 44:1 45:1 46:1 47:1 48:1 49:1 50:1 51:1 52:0 53:0 54:0 55:0 56:0 57:0 58:0 59:0 60:0 61:1 62:1 63:1 64:1 65:0 66:0 67:1 68:1 69:1 70:1 71:0 72:0 73:0 74:0 75:0 76:0 77:0 78:0 79:1 80:1 81:1 82:1 83:0 84:0 85:0 86:1 87:1 88:1 89:1 90:0 91:0 92:0 93:0 94:0 95:0 96:0 97:0 98:1 99:1 100:1 101:1 102:0 103:0 104:0 105:1 106:1 107:1 108:1 109:0 110:0 111:0 112:0 113:0 114:0 115:0 116:0 117:1 118:1 119:1 120:1 121:0 122:0 123:1 124:1 125:1 126:1 127:0 128:0 129:0 130:0 131:0 132:0 133:0 134:0 135:1 136:1 137:1 138:1 139:0 140:0 141:0 142:1 143:1 144:1 145:1 146:0 147:0 148:0 149:0 150:0 151:0 152:0 153:0 154:1 155:1 156:1 157:1 158:0 159:0 160:1 161:1 162:1 163:1 164:1 165:0 166:0 167:0 168:0 169:0 170:0 171:0 172:0 173:1 174:1 175:1 176:1 177:0 178:0 179:1 180:1 181:1 182:1 183:0 184:0 185:0 186:0 187:0 188:0 189:0 190:0 191:1 192:1 193:1 194:1 195:0 196:0 197:0 198:1 199:1 200:1 201:1 202:0 203:0 204:0 205:0 206:0 207:0 208:0 209:0 210:1 211:1 212:1 213:1 214:0 215:0 216:1 217:1 218:1 219:1 220:0 221:0 222:0 223:0 224:0 225:0 226:0 227:0 228:0 229:1 230:1 231:1 232:1 233:1 234:1 235:1 236:1 237:1 238:1 239:0 240:0 241:0 242:0 243:0 244:0 245:0 246:0 247:0 248:0 249:1 250:1 251:1 252:1 253:1 254:1 255:1 256:1 257:0 258:0 259:0 260:0 261:0 262:0 263:0 264:0 265:0 266:0 267:0 268:1 269:1 270:1 271:1 272:1 273:1 274:0 275:0 276:0 277:0 278:0 279:0 280:0 281:0 282:0 283:0 284:0 285:0 286:0 287:0 288:0 289:0 290:0 291:0 292:0 293:0 294:0 295:0 296:0 297:0 298:0 299:0 300:0 301:0 302:0 303:0 304:0
0 0 0 0 0 0 0 0 0 0 0 0 0 0 0 0 0.09491481592550147 1:0 2:0 3:0 4:0 5:0 6:0 7:0 8:1 9:1 10:0 11:1 12:1 13:0 14:0 15:0 16:0 17:0 18:0 19:0 20:0 21:0 22:0 23:0 24:0 25:1 26:1 27:1 28:1 29:1 30:1 31:1 32:1 33:0 34:0 35:0 36:0 37:0 38:0 39:0 40:0 41:0 42:0 43:1 44:1 45:1 46:1 47:1 48:1 49:1 50:1 51:1 52:0 53:0 54:0 55:0 56:0 57:0 58:0 59:0 60:0 61:1 62:1 63:1 64:1 65:0 66:0 67:1 68:1 69:1 70:1 71:0 72:0 73:0 74:0 75:0 76:0 77:0 78:0 79:1 80:1 81:1 82:1 83:0 84:0 85:0 86:1 87:1 88:1 89:1 90:0 91:0 92:0 93:0 94:0 95:0 96:0 97:0 98:1 99:1 100:1 101:1 102:0 103:0 104:1 105:1 106:1 107:1 108:1 109:0 110:0 111:0 112:0 113:0 114:0 115:0 116:1 117:1 118:1 119:1 120:1 121:0 122:0 123:1 124:1 125:1 126:1 127:0 128:0 129:0 130:0 131:0 132:0 133:0 134:0 135:1 136:1 137:1 138:1 139:0 140:0 141:0 142:1 143:1 144:1 145:1 146:0 147:0 148:0 149:0 150:0 151:0 152:0 153:0 154:1 155:1 156:1 157:1 158:0 159:0 160:0 161:1 162:1 163:1 164:1 165:0 166:0 167:0 168:0 169:0 170:0 171:0 172:0 173:1 174:0 175:0 176:1 177:0 178:0 179:1 180:1 181:1 182:1 183:0 184:0 185:0 186:0 187:0 188:0 189:0 190:0 191:0 192:1 193:1 194:1 195:0 196:0 197:0 198:1 199:1 200:1 201:1 202:0 203:0 204:0 205:0 206:0 207:0 208:0 209:0 210:1 211:1 212:1 213:1 214:0 215:0 216:1 217:1 218:1 219:1 220:0 221:0 222:0 223:0 224:0 225:0 226:0 227:0 228:0 229:1 230:1 231:1 232:1 233:1 234:1 235:1 236:1 237:1 238:1 239:0 240:0 241:0 242:0 243:0 244:0 245:0 246:0 247:0 248:1 249:1 250:1 251:1 252:1 253:1 254:1 255:1 256:1 257:0 258:0 259:0 260:0 261:0 262:0 263:0 264:0 265:0 266:0 267:0 268:1 269:1 270:1 271:1 272:1 273:1 274:0 275:0 276:0 277:0 278:0 279:0 280:0 281:0 282:0 283:0 284:0 285:0 286:0 287:0 288:0 289:0 290:0 291:0 292:0 293:0 294:0 295:0 296:0 297:0 298:0 299:0 300:0 301:0 302:0 303:0 304:0
0 0 0.3922756248080133 2.004678487039403 0 0 0 0 0 0 0 0 0 0 1.837890865968882 0 0 1:0 2:0 3:0 4:0 5:0 6:0 7:1 8:1 9:1 10:1 11:1 12:1 13:0 14:0 15:0 16:0 17:0 18:0 19:0 20:0 21:0 22:0 23:0 24:0 25:1 26:1 27:1 28:1 29:1 30:1 31:1 32:1 33:0 34:0 35:0 36:0 37:0 38:0 39:0 40:0 41:0 42:1 43:1 44:1 45:1 46:0 47:0 48:1 49:1 50:1 51:1 52:0 53:0 54:0 55:0 56:0 57:0 58:0 59:0 60:0 61:1 62:1 63:1 64:1 65:0 66:0 67:1 68:1 69:1 70:1 71:0 72:0 73:0 74:0 75:0 76:0 77:0 78:0 79:1 80:1 81:1 82:1 83:0 84:0 85:0 86:1 87:1 88:1 89:1 90:0 91:0 92:0 93:0 94:0 95:0 96:0 97:0 98:1 99:1 100:1 101:1 102:0 103:0 104:1 105:1 106:1 107:1 108:1 109:0 110:0 111:0 112:0 113:0 114:0 115:0 116:1 117:1 118:1 119:1 120:1 121:0 122:0 123:1 124:1 125:1 126:1 127:0 128:0 129:0 130:0 131:0 132:0 133:0 134:0 135:1 136:1 137:1 138:1 139:0 140:0 141:0 142:1 143:1 144:1 145:0 146:0 147:0 148:0 149:0 150:0 151:0 152:0 153:0 154:1 155:1 156:1 157:1 158:0 159:0 160:0 161:1 162:1 163:1 164:1 165:0 166:0 167:0 168:0 169:0 170:0 171:0 172:1 173:1 174:1 175:1 176:1 177:0 178:0 179:1 180:1 181:1 182:1 183:0 184:0 185:0 186:0 187:0 188:0 189:0 190:0 191:1 192:1 193:1 194:1 195:0 196:0 197:0 198:1 199:1 200:1 201:1 202:0 203:0 204:0 205:0 206:0 207:0 208:0 209:0 210:1 211:1 212:1 213:1 214:0 215:0 216:1 217:1 218:1 219:1 220:0 221:0 222:0 223:0 224:0 225:0 226:0 227:0 228:0 229:1 230:1 231:1 232:1 233:1 234:1 235:1 236:1 237:1 238:1 239:0 240:0 241:0 242:0 243:0 244:0 245:0 246:0 247:0 248:0 249:1 250:1 251:1 252:1 253:1 254:1 255:1 256:1 257:0 258:0 259:0 260:0 261:0 262:0 263:0 264:0 265:0 266:0 267:0 268:1 269:1 270:1 271:1 272:1 273:1 274:0 275:0 276:0 277:0 278:0 279:0 280:0 281:0 282:0 283:0 284:0 285:0 286:0 287:0 288:0 289:1 290:0 291:0 292:0 293:0 294:0 295:0 296:0 297:0 298:0 299:0 300:0 301:0 302:0 303:0 304:0
0 0 5.5937898422362 4.519522663486868 0 0 0 0 0 0 0 0 0 0 0 0 0 1:0 2:0 3:0 4:0 5:0 6:0 7:1 8:1 9:1 10:1 11:1 12:1 13:0 14:0 15:0 16:0 17:0 18:0 19:0 20:0 21:0 22:0 23:0 24:0 25:1 26:1 27:1 28:1 29:1 30:1 31:1 32:1 33:0 34:0 35:0 36:0 37:0 38:0 39:0 40:0 41:0 42:0 43:1 44:1 45:1 46:1 47:1 48:1 49:1 50:1 51:1 52:0 53:0 54:0 55:0 56:0 57:0 58:0 59:0 60:0 61:1 62:1 63:1 64:1 65:0 66:0 67:1 68:1 69:1 70:1 71:0 72:0 73:0 74:0 75:0 76:0 77:0 78:0 79:1 80:1 81:1 82:1 83:0 84:0 85:0 86:1 87:1 88:1 89:1 90:0 91:0 92:0 93:0 94:0 95:0 96:0 97:0 98:1 99:1 100:1 101:1 102:0 103:0 104:1 105:1 106:1 107:1 108:1 109:0 110:0 111:0 112:0 113:0 114:0 115:0 116:1 117:1 118:1 119:1 120:1 121:0 122:0 123:1 124:1 125:1 126:1 127:0 128:0 129:0 130:0 131:0 132:0 133:0 134:0 135:0 136:1 137:1 138:1 139:0 140:0 141:0 142:1 143:1 144:1 145:1 146:0 147:0 148:0 149:0 150:0 151:0 152:0 153:0 154:1 155:1 156:1 157:1 158:0 159:0 160:1 161:1 162:1 163:1 164:1 165:0 166:0 167:0 168:0 169:0 170:0 171:0 172:1 173:1 174:1 175:1 176:1 177:0 178:0 179:1 180:1 181:1 182:1 183:0 184:0 185:0 186:0 187:0 188:0 189:0 190:0 191:1 192:1 193:1 194:1 195:0 196:0 197:0 198:1 199:1 200:1 201:1 202:0 203:0 204:0 205:0 206:0 207:0 208:0 209:0 210:1 211:1 212:1 213:1 214:0 215:0 216:1 217:1 218:1 219:1 220:0 221:0 222:0 223:0 224:0 225:0 226:0 227:0 228:0 229:1 230:1 231:1 232:1 233:1 234:1 235:1 236:1 237:1 238:1 239:0 240:0 241:0 242:0 243:0 244:0 245:0 246:0 247:0 248:0 249:1 250:1 251:1 252:1 253:1 254:1 255:1 256:1 257:0 258:0 259:0 260:0 261:0 262:0 263:0 264:0 265:0 266:0 267:0 268:1 269:1 270:1 271:1 272:1 273:1 274:0 275:0 276:0 277:0 278:0 279:0 280:0 281:0 282:0 283:0 284:0 285:0 286:0 287:0 288:0 289:0 290:0 291:0 292:0 293:0 294:0 295:0 296:0 297:0 298:0 299:0 300:0 301:0 302:0 303:0 304:0
0 0 0 0 0 0.1134788770982109 0 0 0 0 0 0 0 0 0 0 0 1:0 2:0 3:0 4:0 5:0 6:0 7:1 8:1 9:1 10:1 11:1 12:1 13:0 14:0 15:0 16:0 17:0 18:0 19:0 20:0 21:0 22:0 23:0 24:0 25:1 26:1 27:1 28:1 29:1 30:1 31:1 32:1 33:0 34:0 35:0 36:0 37:0 38:0 39:0 40:0 41:0 42:0 43:1 44:1 45:1 46:1 47:1 48:1 49:1 50:1 51:1 52:0 53:0 54:0 55:0 56:0 57:0 58:0 59:0 60:0 61:1 62:1 63:1 64:1 65:0 66:0 67:1 68:1 69:1 70:1 71:0 72:0 73:0 74:0 75:0 76:0 77:0 78:0 79:1 80:1 81:1 82:1 83:0 84:0 85:0 86:1 87:1 88:1 89:1 90:0 91:0 92:0 93:0 94:0 95:0 96:0 97:0 98:1 99:1 100:1 101:1 102:0 103:0 104:0 105:1 106:1 107:1 108:1 109:0 110:0 111:0 112:0 113:0 114:0 115:0 116:1 117:1 118:1 119:1 120:1 121:0 122:0 123:1 124:1 125:1 126:1 127:0 128:0 129:0 130:0 131:0 132:0 133:0 134:0 135:1 136:1 137:1 138:1 139:0 140:0 141:0 142:1 143:1 144:0 145:1 146:0 147:0 148:0 149:0 150:0 151:0 152:0 153:0 154:1 155:1 156:1 157:1 158:0 159:0 160:0 161:1 162:1 163:0 164:1 165:0 166:0 167:0 168:0 169:0 170:0 171:0 172:1 173:1 174:1 175:1 176:0 177:0 178:0 179:1 180:1 181:1 182:1 183:0 184:0 185:0 186:0 187:0 188:0 189:0 190:0 191:1 192:1 193:1 194:1 195:0 196:0 197:0 198:1 199:1 200:1 201:1 202:0 203:0 204:0 205:0 206:0 207:0 208:0 209:0 210:1 211:1 212:1 213:1 214:0 215:0 216:1 217:1 218:1 219:1 220:0 221:0 222:0 223:0 224:0 225:0 226:0 227:0 228:0 229:1 230:1 231:1 232:1 233:1 234:1 235:1 236:1 237:1 238:1 239:0 240:0 241:0 242:0 243:0 244:0 245:0 246:0 247:0 248:0 249:1 250:1 251:1 252:1 253:1 254:1 255:1 256:1 257:0 258:0 259:0 260:0 261:0 262:0 263:0 264:0 265:0 266:0 267:0 268:1 269:1 270:1 271:1 272:1 273:1 274:0 275:0 276:0 277:0 278:0 279:0 280:0 281:0 282:0 283:0 284:0 285:0 286:0 287:0 288:0 289:0 290:0 291:0 292:0 293:0 294:0 295:0 296:0 297:0 298:0 299:0 300:0 301:0 302:0 303:0 304:0
0 0 0 0 0 0 0 0 0.2600252302359071 0 0 0.5606001192407305 0.2936903667666319 0 0 0 0 1:0 2:0 3:0 4:0 5:0 6:0 7:1 8:1 9:1 10:1 11:1 12:1 13:0 14:0 15:0 16:0 17:0 18:0 19:0 20:0 21:0 22:0 23:0 24:0 25:1 26:1 27:1 28:1 29:1 30:1 31:1 32:1 33:0 34:0 35:0 36:0 37:0 38:0 39:0 40:0 41:0 42:0 43:1 44:1 45:1 46:1 47:1 48:1 49:1 50:1 51:1 52:0 53:0 54:0 55:0 56:0 57:0 58:0 59:0 60:0 61:1 62:1 63:1 64:1 65:0 66:0 67:1 68:1 69:1 70:1 71:0 72:0 73:0 74:0 75:0 76:0 77:0 78:0 79:1 80:1 81:1 82:1 83:0 84:0 85:0 86:1 87:1 88:1 89:1 90:0 91:0 92:0 93:0 94:0 95:0 96:0 97:0 98:1 99:1 100:1 101:1 102:0 103:0 104:0 105:1 106:1 107:1 108:1 109:0 110:0 111:0 112:0 113:0 114:0 115:0 116:1 117:1 118:1 119:1 120:0 121:0 122:0 123:1 124:1 125:1 126:1 127:1 128:0 129:0 130:0 131:0 132:0 133:0 134:0 135:1 136:1 137:1 138:0 139:0 140:0 141:0 142:1 143:1 144:1 145:1 146:0 147:0 148:0 149:0 150:0 151:0 152:0 153:0 154:1 155:1 156:1 157:1 158:0 159:0 160:0 161:1 162:1 163:1 164:1 165:0 166:0 167:0 168:0 169:0 170:0 171:0 172:0 173:1 174:1 175:1 176:0 177:0 178:0 179:1 180:1 181:1 182:1 183:0 184:0 185:0 186:0 187:0 188:0 189:0 190:0 191:1 192:1 193:1 194:1 195:0 196:0 197:0 198:1 199:1 200:1 201:1 202:0 203:0 204:0 205:0 206:0 207:0 208:0 209:0 210:1 211:1 212:1 213:1 214:0 215:0 216:1 217:1 218:1 219:1 220:0 221:0 222:0 223:0 224:0 225:0 226:0 227:0 228:0 229:1 230:1 231:1 232:1 233:1 234:1 235:1 236:1 237:1 238:1 239:0 240:0 241:0 242:0 243:0 244:0 245:0 246:0 247:0 248:0 249:1 250:1 251:1 252:1 253:1 254:1 255:0 256:0 257:0 258:0 259:0 260:0 261:0 262:0 263:0 264:0 265:0 266:0 267:0 268:1 269:1 270:1 271:1 272:1 273:1 274:0 275:0 276:0 277:0 278:0 279:0 280:0 281:0 282:0 283:0 284:0 285:0 286:0 287:0 288:0 289:0 290:0 291:0 292:0 293:0 294:0 295:0 296:0 297:0 298:0 299:0 300:0 301:0 302:0 303:0 304:0
0 0.5530328108875535 1.590660777044382 0 0 0 0 0 0 0 0 0 0 0 0.8201812286794645 0 0 1:0 2:0 3:0 4:0 5:0 6:0 7:0 8:1 9:1 10:1 11:1 12:1 13:0 14:0 15:0 16:0 17:0 18:0 19:0 20:0 21:0 22:0 23:0 24:0 25:1 26:1 27:1 28:1 29:1 30:1 31:1 32:1 33:0 34:0 35:0 36:0 37:0 38:0 39:0 40:0 41:0 42:0 43:1 44:1 45:1 46:1 47:1 48:1 49:1 50:1 51:1 52:0 53:0 54:0 55:0 56:0 57:0 58:0 59:0 60:0 61:1 62:1 63:1 64:1 65:0 66:0 67:1 68:1 69:1 70:1 71:0 72:0 73:0 74:0 75:0 76:0 77:0 78:0 79:1 80:1 81:1 82:1 83:0 84:0 85:0 86:1 87:1 88:1 89:1 90:0 91:0 92:0 93:0 94:0 95:0 96:0 97:0 98:1 99:1 100:1 101:1 102:0 103:0 104:1 105:1 106:1 107:1 108:1 109:0 110:0 111:0 112:0 113:0 114:0 115:1 116:1 117:1 118:1 119:1 120:1 121:0 122:0 123:1 124:1 125:1 126:1 127:0 128:0 129:0 130:0 131:0 132:0 133:0 134:0 135:1 136:1 137:1 138:1 139:0 140:0 141:0 142:1 143:1 144:1 145:1 146:0 147:0 148:0 149:0 150:0 151:0 152:0 153:0 154:1 155:1 156:1 157:1 158:0 159:0 160:0 161:1 162:1 163:1 164:1 165:0 166:0 167:0 168:0 169:0 170:0 171:0 172:0 173:1 174:1 175:1 176:1 177:0 178:0 179:1 180:1 181:1 182:0 183:0 184:0 185:0 186:0 187:0 188:0 189:0 190:0 191:1 192:1 193:1 194:1 195:1 196:0 197:0 198:1 199:1 200:1 201:1 202:0 203:0 204:0 205:0 206:0 207:0 208:0 209:0 210:1 211:1 212:1 213:1 214:0 215:0 216:1 217:1 218:1 219:1 220:0 221:0 222:0 223:0 224:0 225:0 226:0 227:0 228:0 229:1 230:1 231:1 232:1 233:1 234:1 235:1 236:1 237:1 238:1 239:0 240:0 241:0 242:0 243:0 244:0 245:0 246:0 247:0 248:0 249:1 250:1 251:1 252:1 253:1 254:1 255:1 256:1 257:0 258:0 259:0 260:0 261:0 262:0 263:0 264:0 265:0 266:0 267:0 268:1 269:0 270:1 271:1 272:1 273:1 274:0 275:0 276:0 277:0 278:0 279:0 280:0 281:0 282:0 283:0 284:0 285:0 286:0 287:0 288:0 289:0 290:0 291:0 292:0 293:0 294:0 295:0 296:0 297:0 298:0 299:0 300:0 301:0 302:0 303:0 304:0
0 0 0 2.919952322707493 1.160904226620685 0.3169897745483331 0 0.2961713289047607 0 0 0.1347122981975411 0 0.3495377709872383 0 0 0 0 1:0 2:0 3:0 4:0 5:0 6:0 7:0 8:1 9:1 10:1 11:1 12:1 13:1 14:0 15:0 16:0 17:0 18:0 19:0 20:0 21:0 22:0 23:0 24:0 25:0 26:1 27:1 28:1 29:1 30:1 31:1 32:1 33:1 34:0 35:0 36:0 37:0 38:0 39:0 40:0 41:0 42:0 43:1 44:1 45:1 46:1 47:1 48:1 49:1 50:1 51:1 52:1 53:0 54:0 55:0 56:0 57:0 58:0 59:0 60:0 61:0 62:1 63:1 64:1 65:0 66:0 67:0 68:1 69:1 70:1 71:1 72:0 73:0 74:0 75:0 76:0 77:0 78:0 79:0 80:1 81:1 82:1 83:1 84:0 85:0 86:0 87:1 88:1 89:1 90:1 91:0 92:0 93:0 94:0 95:0 96:0 97:0 98:0 99:1 100:1 101:1 102:1 103:0 104:0 105:1 106:1 107:1 108:1 109:1 110:0 111:0 112:0 113:0 114:0 115:0 116:0 117:1 118:1 119:1 120:1 121:1 122:0 123:0 124:1 125:1 126:1 127:1 128:0 129:0 130:0 131:0 132:0 133:0 134:0 135:0 136:1 137:1 138:1 139:1 140:0 141:0 142:0 143:1 144:1 145:1 146:1 147:0 148:0 149:0 150:0 151:0 152:0 153:0 154:0 155:1 156:1 157:1 158:1 159:0 160:0 161:0 162:1 163:1 164:1 165:1 166:0 167:0 168:0 169:0 170:0 171:0 172:0 173:1 174:1 175:1 176:1 177:1 178:0 179:0 180:1 181:1 182:1 183:1 184:0 185:0 186:0 187:0 188:0 189:0 190:0 191:0 192:1 193:1 194:1 195:1 196:0 197:0 198:0 199:1 200:1 201:1 202:1 203:0 204:0 205:0 206:0 207:0 208:0 209:0 210:1 211:1 212:1 213:1 214:1 215:0 216:0 217:1 218:1 219:1 220:1 221:0 222:0 223:0 224:0 225:0 226:0 227:0 228:0 229:0 230:1 231:1 232:1 233:1 234:1 235:1 236:1 237:1 238:1 239:1 240:0 241:0 242:0 243:0 244:0 245:0 246:0 247:0 248:0 249:0 250:1 251:1 252:1 253:1 254:1 255:1 256:1 257:1 258:0 259:0 260:0 261:0 262:0 263:0 264:0 265:0 266:0 267:0 268:0 269:1 270:1 271:1 272:1 273:1 274:1 275:0 276:0 277:0 278:0 279:0 280:0 281:0 282:0 283:0 284:0 285:0 286:0 287:0 288:0 289:0 290:0 291:0 292:0 293:0 294:0 295:0 296:0 297:0 298:0 299:0 300:0 301:0 302:0 303:0 304:0
0.1010695096673858 0 10.08800096965137 2.819291594000523 0 0.2941649861078336 2.352992920839941 1.394553983447718 0 4.522602085838285 1.478397045349614 0 0.6758515137819672 1.874034673776153 0.546130391647023 2.011480127422208 0.3900994481491416 1:0 2:0 3:0 4:0 5:0 6:0 7:1 8:1 9:1 10:1 11:1 12:0 13:0 14:0 15:0 16:0 17:0 18:0 19:0 20:0 21:0 22:0 23:0 24:0 25:1 26:1 27:1 28:1 29:1 30:1 31:0 32:0 33:0 34:0 35:0 36:0 37:0 38:0 39:0 40:0 41:0 42:0 43:1 44:1 45:1 46:1 47:1 48:1 49:1 50:0 51:0 52:0 53:0 54:0 55:0 56:0 57:0 58:0 59:0 60:0 61:1 62:1 63:1 64:1 65:0 66:0 67:1 68:1 69:0 70:0 71:0 72:0 73:0 74:0 75:0 76:0 77:0 78:0 79:1 80:1 81:1 82:1 83:0 84:0 85:0 86:1 87:1 88:0 89:0 90:0 91:0 92:0 93:0 94:0 95:0 96:0 97:0 98:1 99:1 100:1 101:1 102:0 103:0 104:0 105:1 106:1 107:0 108:0 109:0 110:0 111:0 112:0 113:0 114:0 115:0 116:1 117:1 118:1 119:1 120:0 121:0 122:0 123:1 124:1 125:1 126:0 127:0 128:0 129:0 130:0 131:0 132:0 133:0 134:0 135:1 136:1 137:1 138:1 139:0 140:0 141:0 142:1 143:1 144:1 145:0 146:0 147:0 148:0 149:0 150:0 151:0 152:0 153:0 154:1 155:1 156:1 157:1 158:0 159:0 160:0 161:1 162:1 163:1 164:0 165:0 166:0 167:0 168:0 169:0 170:0 171:0 172:0 173:1 174:1 175:1 176:0 177:0 178:0 179:1 180:1 181:1 182:1 183:0 184:0 185:0 186:0 187:0 188:0 189:0 190:0 191:1 192:1 193:1 194:1 195:0 196:0 197:0 198:1 199:1 200:1 201:1 202:0 203:0 204:0 205:0 206:0 207:0 208:0 209:0 210:1 211:1 212:1 213:1 214:0 215:0 216:1 217:1 218:1 219:1 220:0 221:0 222:0 223:0 224:0 225:0 226:0 227:0 228:0 229:1 230:1 231:1 232:1 233:1 234:1 235:1 236:1 237:1 238:1 239:0 240:0 241:0 242:0 243:0 244:0 245:0 246:0 247:0 248:0 249:1 250:1 251:1 252:1 253:1 254:1 255:1 256:1 257:0 258:0 259:0 260:0 261:0 262:0 263:0 264:0 265:0 266:0 267:0 268:1 269:1 270:1 271:1 272:1 273:1 274:0 275:0 276:0 277:0 278:0 279:0 280:0 281:0 282:0 283:0 284:0 285:0 286:0 287:0 288:0 289:0 290:0 291:0 292:1 293:0 294:0 295:0 296:0 297:0 298:0 299:0 300:0 301:0 302:0 303:0 304:0
0 1.437209340172998 6.886696075454833 4.584368861628423 0 0 0 0 0 0 0 0.06476308828841845 0 0 0 0 0 1:0 2:0 3:0 4:0 5:0 6:0 7:0 8:1 9:1 10:1 11:1 12:1 13:1 14:0 15:0 16:0 17:0 18:0 19:0 20:0 21:0 22:0 23:0 24:0 25:0 26:1 27:1 28:1 29:1 30:1 31:1 32:1 33:1 34:0 35:0 36:0 37:0 38:0 39:0 40:0 41:0 42:0 43:0 44:1 45:1 46:1 47:1 48:1 49:1 50:1 51:1 52:1 53:0 54:0 55:0 56:0 57:0 58:0 59:0 60:0 61:0 62:1 63:1 64:1 65:1 66:0 67:0 68:1 69:1 70:1 71:1 72:0 73:0 74:0 75:0 76:0 77:0 78:0 79:0 80:1 81:1 82:1 83:1 84:0 85:0 86:0 87:1 88:1 89:1 90:1 91:0 92:0 93:0 94:0 95:0 96:0 97:0 98:0 99:1 100:1 101:1 102:1 103:0 104:0 105:1 106:1 107:1 108:1 109:1 110:0 111:0 112:0 113:0 114:0 115:0 116:0 117:1 118:1 119:1 120:1 121:1 122:0 123:0 124:1 125:1 126:1 127:1 128:0 129:0 130:0 131:0 132:0 133:0 134:0 135:0 136:1 137:1 138:1 139:1 140:0 141:0 142:0 143:1 144:1 145:1 146:1 147:0 148:0 149:0 150:0 151:0 152:0 153:0 154:0 155:1 156:1 157:1 158:1 159:0 160:0 161:0 162:1 163:1 164:1 165:1 166:0 167:0 168:0 169:0 170:0 171:0 172:0 173:1 174:1 175:1 176:1 177:1 178:0 179:0 180:1 181:1 182:1 183:1 184:0 185:0 186:0 187:0 188:0 189:0 190:0 191:0 192:1 193:1 194:1 195:1 196:0 197:0 198:0 199:1 200:1 201:1 202:1 203:0 204:0 205:0 206:0 207:0 208:0 209:0 210:1 211:1 212:1 213:1 214:1 215:0 216:0 217:1 218:1 219:1 220:1 221:0 222:0 223:0 224:0 225:0 226:0 227:0 228:0 229:0 230:1 231:1 232:1 233:1 234:1 235:1 236:1 237:1 238:1 239:1 240:0 241:0 242:0 243:0 244:0 245:0 246:0 247:0 248:0 249:0 250:1 251:1 252:1 253:1 254:1 255:1 256:1 257:1 258:0 259:0 260:0 261:0 262:0 263:0 264:0 265:0 266:0 267:0 268:0 269:1 270:1 271:1 272:1 273:1 274:1 275:0 276:0 277:0 278:0 279:0 280:0 281:0 282:0 283:0 284:0 285:0 286:0 287:0 288:0 289:0 290:0 291:0 292:0 293:0 294:0 295:0 296:0 297:0 298:0 299:0 300:0 301:0 302:0 303:0 304:0
-1.290639227568517 0 0.5350192460214371 1.798995763715782 0 0 0 0 0 0 0 0 0 0 0 0 0 1:0 2:0 3:0 4:0 5:0 6:0 7:0 8:1 9:1 10:1 11:1 12:1 13:1 14:0 15:0 16:0 17:0 18:0 19:0 20:0 21:0 22:0 23:0 24:0 25:1 26:1 27:1 28:1 29:1 30:1 31:1 32:1 33:1 34:0 35:0 36:0 37:0 38:0 39:0 40:0 41:0 42:0 43:1 44:1 45:1 46:1 47:1 48:1 49:1 50:1 51:1 52:1 53:0 54:0 55:0 56:0 57:0 58:0 59:0 60:0 61:0 62:1 63:1 64:1 65:1 66:0 67:0 68:1 69:1 70:1 71:1 72:0 73:0 74:0 75:0 76:0 77:0 78:0 79:0 80:1 81:1 82:1 83:1 84:0 85:0 86:0 87:1 88:1 89:1 90:1 91:0 92:0 93:0 94:0 95:0 96:0 97:0 98:0 99:0 100:0 101:0 102:0 103:0 104:0 105:0 106:1 107:1 108:1 109:1 110:0 111:0 112:0 113:0 114:0 115:0 116:0 117:0 118:0 119:0 120:0 121:0 122:0 123:0 124:1 125:1 126:1 127:1 128:0 129:0 130:0 131:0 132:0 133:0 134:0 135:0 136:0 137:0 138:0 139:0 140:0 141:1 142:1 143:1 144:1 145:1 146:0 147:0 148:0 149:0 150:0 151:0 152:0 153:0 154:0 155:0 156:0 157:1 158:0 159:1 160:1 161:1 162:1 163:1 164:0 165:0 166:0 167:0 168:0 169:0 170:0 171:0 172:0 173:0 174:0 175:0 176:1 177:1 178:1 179:1 180:1 181:1 182:0 183:0 184:0 185:0 186:0 187:0 188:0 189:0 190:0 191:0 192:0 193:0 194:1 195:1 196:1 197:1 198:1 199:0 200:0 201:0 202:0 203:0 204:0 205:0 206:0 207:0 208:0 209:0 210:0 211:0 212:1 213:1 214:1 215:1 216:1 217:0 218:0 219:0 220:0 221:0 222:0 223:0 224:0 225:0 226:0 227:0 228:0 229:0 230:1 231:1 232:1 233:1 234:1 235:1 236:1 237:1 238:1 239:1 240:0 241:0 242:0 243:0 244:0 245:0 246:0 247:0 248:1 249:1 250:1 251:1 252:1 253:1 254:1 255:1 256:1 257:1 258:1 259:0 260:0 261:0 262:0 263:0 264:0 265:0 266:0 267:0 268:1 269:1 270:1 271:1 272:1 273:1 274:1 275:1 276:1 277:1 278:0 279:0 280:0 281:0 282:0 283:0 284:0 285:0 286:0 287:0 288:0 289:0 290:0 291:0 292:0 293:0 294:0 295:0 296:0 297:0 298:0 299:0 300:0 301:0 302:0 303:0 304:0
-0 0 0 0 0 0 1.568560393504261 0 0 0 0 2.313043221417334 0 0.3765865922317094 0.2499080207152534 0 0 1:0 2:0 3:0 4:0 5:0 6:0 7:0 8:1 9:1 10:1 11:1 12:1 13:1 14:0 15:0 16:0 17:0 18:0 19:0 20:0 21:0 22:0 23:0 24:0 25:1 26:1 27:1 28:1 29:1 30:1 31:1 32:1 33:1 34:0 35:0 36:0 37:0 38:0 39:0 40:0 41:0 42:0 43:1 44:1 45:1 46:1 47:1 48:1 49:1 50:1 51:1 52:1 53:0 54:0 55:0 56:0 57:0 58:0 59:0 60:0 61:0 62:1 63:1 64:1 65:1 66:0 67:0 68:1 69:1 70:1 71:1 72:0 73:0 74:0 75:0 76:0 77:0 78:0 79:0 80:1 81:1 82:1 83:1 84:0 85:0 86:0 87:1 88:1 89:1 90:1 91:0 92:0 93:0 94:0 95:0 96:0 97:0 98:0 99:0 100:0 101:0 102:0 103:0 104:0 105:0 106:1 107:1 108:1 109:1 110:0 111:0 112:0 113:0 114:0 115:0 116:0 117:0 118:0 119:0 120:0 121:0 122:0 123:0 124:1 125:1 126:1 127:1 128:0 129:0 130:0 131:0 132:0 133:0 134:0 135:0 136:0 137:0 138:0 139:0 140:0 141:1 142:1 143:1 144:1 145:1 146:0 147:0 148:0 149:0 150:0 151:0 152:0 153:0 154:0 155:0 156:0 157:0 158:0 159:1 160:1 161:1 162:1 163:1 164:0 165:0 166:0 167:0 168:0 169:0 170:0 171:0 172:0 173:0 174:0 175:0 176:1 177:1 178:1 179:1 180:1 181:1 182:0 183:0 184:0 185:0 186:0 187:0 188:0 189:0 190:0 191:0 192:0 193:0 194:1 195:1 196:1 197:1 198:1 199:0 200:0 201:0 202:0 203:0 204:0 205:0 206:0 207:0 208:0 209:0 210:0 211:0 212:1 213:1 214:1 215:1 216:1 217:0 218:0 219:0 220:0 221:0 222:0 223:0 224:0 225:0 226:0 227:0 228:0 229:0 230:1 231:1 232:1 233:1 234:1 235:1 236:1 237:1 238:1 239:0 240:0 241:0 242:0 243:0 244:0 245:0 246:0 247:0 248:0 249:1 250:1 251:1 252:1 253:1 254:1 255:1 256:0 257:0 258:0 259:0 260:0 261:0 262:0 263:0 264:0 265:0 266:0 267:1 268:1 269:1 270:1 271:1 272:1 273:1 274:1 275:1 276:1 277:0 278:0 279:0 280:0 281:0 282:0 283:0 284:0 285:0 286:0 287:0 288:0 289:0 290:0 291:0 292:0 293:0 294:0 295:0 296:0 297:0 298:0 299:0 300:0 301:0 302:0 303:0 304:0
-0 0 0 0 0 0 0.7574181667296325 0 0 0 0 0 0 0 0.8293066896584376 0 0 1:0 2:0 3:0 4:0 5:0 6:0 7:0 8:0 9:0 10:0 11:0 12:0 13:1 14:0 15:0 16:0 17:0 18:0 19:0 20:0 21:0 22:0 23:0 24:0 25:0 26:0 27:1 28:1 29:1 30:1 31:1 32:1 33:0 34:0 35:0 36:0 37:0 38:0 39:0 40:0 41:0 42:0 43:0 44:1 45:1 46:1 47:1 48:1 49:1 50:1 51:1 52:1 53:0 54:0 55:0 56:0 57:0 58:0 59:0 60:0 61:0 62:1 63:1 64:1 65:1 66:1 67:1 68:1 69:1 70:1 71:1 72:0 73:0 74:0 75:0 76:0 77:0 78:0 79:0 80:0 81:1 82:1 83:1 84:1 85:0 86:0 87:1 88:1 89:1 90:1 91:0 92:0 93:0 94:0 95:0 96:0 97:0 98:0 99:1 100:1 101:1 102:1 103:0 104:0 105:0 106:1 107:1 108:1 109:1 110:0 111:0 112:0 113:0 114:0 115:0 116:0 117:0 118:0 119:0 120:0 121:0 122:0 123:0 124:0 125:1 126:1 127:1 128:1 129:0 130:0 131:0 132:0 133:0 134:0 135:0 136:0 137:0 138:0 139:0 140:0 141:0 142:0 143:1 144:1 145:1 146:1 147:0 148:0 149:0 150:0 151:0 152:0 153:0 154:0 155:0 156:0 157:0 158:0 159:0 160:1 161:1 162:1 163:1 164:1 165:0 166:0 167:0 168:0 169:0 170:0 171:0 172:0 173:0 174:0 175:0 176:0 177:0 178:1 179:1 180:1 181:1 182:1 183:0 184:0 185:0 186:0 187:0 188:0 189:0 190:0 191:0 192:0 193:0 194:0 195:1 196:1 197:1 198:1 199:1 200:1 201:0 202:0 203:0 204:0 205:0 206:0 207:0 208:0 209:0 210:0 211:0 212:0 213:1 214:1 215:1 216:1 217:1 218:0 219:0 220:0 221:0 222:0 223:0 224:0 225:0 226:0 227:0 228:0 229:0 230:0 231:0 232:1 233:1 234:1 235:1 236:0 237:0 238:0 239:0 240:0 241:0 242:0 243:0 244:0 245:0 246:0 247:0 248:0 249:1 250:1 251:1 252:1 253:1 254:1 255:1 256:1 257:1 258:1 259:0 260:0 261:0 262:0 263:0 264:0 265:0 266:0 267:1 268:1 269:1 270:1 271:1 272:1 273:1 274:1 275:1 276:1 277:1 278:0 279:0 280:0 281:0 282:0 283:0 284:0 285:0 286:1 287:1 288:1 289:1 290:1 291:1 292:1 293:1 294:1 295:1 296:1 297:0 298:0 299:0 300:0 301:0 302:0 303:0 304:0
-0 0 0 0 0.3818394958826779 1.036295987974852 0 0 0 0 0 0 0 0 0 0 0 1:0 2:0 3:0 4:0 5:0 6:0 7:0 8:1 9:1 10:1 11:1 12:1 13:1 14:0 15:0 16:0 17:0 18:0 19:0 20:0 21:0 22:0 23:0 24:0 25:1 26:1 27:1 28:1 29:1 30:1 31:1 32:1 33:1 34:0 35:0 36:0 37:0 38:0 39:0 40:0 41:0 42:0 43:1 44:1 45:1 46:1 47:1 48:1 49:1 50:1 51:1 52:1 53:0 54:0 55:0 56:0 57:0 58:0 59:0 60:0 61:0 62:1 63:1 64:1 65:1 66:0 67:0 68:1 69:1 70:1 71:1 72:0 73:0 74:0 75:0 76:0 77:0 78:0 79:0 80:1 81:1 82:1 83:1 84:0 85:0 86:0 87:1 88:1 89:1 90:1 91:0 92:0 93:0 94:0 95:0 96:0 97:0 98:0 99:0 100:1 101:0 102:0 103:0 104:0 105:0 106:1 107:1 108:1 109:1 110:0 111:0 112:0 113:0 114:0 115:0 116:0 117:0 118:0 119:0 120:0 121:0 122:0 123:0 124:1 125:1 126:1 127:1 128:0 129:0 130:0 131:0 132:0 133:0 134:0 135:0 136:0 137:0 138:0 139:0 140:0 141:1 142:1 143:1 144:1 145:1 146:0 147:0 148:0 149:0 150:0 151:0 152:0 153:0 154:0 155:0 156:0 157:0 158:0 159:1 160:1 161:1 162:1 163:1 164:0 165:0 166:0 167:0 168:0 169:0 170:0 171:0 172:0 173:0 174:0 175:0 176:1 177:1 178:1 179:1 180:0 181:1 182:0 183:0 184:0 185:0 186:0 187:0 188:0 189:0 190:0 191:0 192:0 193:0 194:1 195:1 196:1 197:1 198:1 199:0 200:0 201:0 202:0 203:0 204:0 205:0 206:0 207:0 208:0 209:0 210:0 211:0 212:1 213:1 214:1 215:1 216:1 217:0 218:0 219:0 220:0 221:0 222:0 223:0 224:0 225:0 226:0 227:0 228:0 229:0 230:1 231:1 232:1 233:1 234:1 235:1 236:1 237:1 238:1 239:1 240:1 241:0 242:0 243:0 244:0 245:0 246:0 247:0 248:1 249:1 250:1 251:1 252:1 253:1 254:1 255:1 256:1 257:1 258:1 259:0 260:0 261:0 262:0 263:0 264:0 265:0 266:0 267:1 268:1 269:1 270:1 271:1 272:1 273:1 274:1 275:1 276:1 277:1 278:0 279:0 280:0 281:0 282:0 283:0 284:0 285:0 286:0 287:0 288:0 289:0 290:0 291:0 292:0 293:0 294:0 295:0 296:0 297:0 298:0 299:0 300:0 301:0 302:0 303:0 304:0
-0 0 0 0 0 0 0 0.3206765976184559 0 0.6115965182695289 0 0 0 0 0 0.9549615135853203 0 1:0 2:0 3:0 4:0 5:0 6:0 7:0 8:1 9:1 10:1 11:1 12:1 13:1 14:0 15:0 16:0 17:0 18:0 19:0 20:0 21:0 22:0 23:0 24:0 25:1 26:1 27:1 28:1 29:1 30:1 31:1 32:0 33:0 34:0 35:0 36:0 37:0 38:0 39:0 40:0 41:0 42:0 43:1 44:1 45:1 46:1 47:1 48:1 49:1 50:1 51:1 52:0 53:0 54:0 55:0 56:0 57:0 58:0 59:0 60:0 61:1 62:1 63:1 64:1 65:1 66:0 67:0 68:1 69:1 70:1 71:1 72:0 73:0 74:0 75:0 76:0 77:0 78:0 79:0 80:1 81:1 82:1 83:1 84:0 85:0 86:0 87:1 88:1 89:1 90:1 91:0 92:0 93:0 94:0 95:0 96:0 97:0 98:0 99:0 100:0 101:0 102:0 103:0 104:0 105:0 106:1 107:1 108:1 109:1 110:0 111:0 112:0 113:0 114:0 115:0 116:0 117:0 118:0 119:0 120:0 121:0 122:0 123:0 124:1 125:1 126:1 127:1 128:0 129:0 130:0 131:0 132:0 133:0 134:0 135:0 136:0 137:0 138:0 139:0 140:0 141:1 142:1 143:1 144:1 145:1 146:0 147:0 148:0 149:0 150:0 151:0 152:0 153:0 154:0 155:0 156:0 157:0 158:0 159:1 160:1 161:1 162:1 163:1 164:0 165:0 166:0 167:0 168:0 169:0 170:0 171:0 172:0 173:0 174:0 175:0 176:1 177:1 178:1 179:1 180:1 181:1 182:0 183:0 184:0 185:0 186:0 187:0 188:0 189:0 190:0 191:0 192:0 193:0 194:1 195:1 196:1 197:1 198:1 199:0 200:0 201:0 202:0 203:0 204:0 205:0 206:0 207:0 208:0 209:0 210:0 211:0 212:1 213:1 214:1 215:1 216:1 217:0 218:0 219:0 220:0 221:0 222:0 223:0 224:0 225:0 226:0 227:0 228:0 229:0 230:1 231:1 232:1 233:1 234:1 235:1 236:1 237:1 238:1 239:1 240:1 241:0 242:0 243:0 244:0 245:0 246:0 247:0 248:1 249:1 250:1 251:1 252:1 253:1 254:1 255:1 256:1 257:1 258:1 259:0 260:0 261:0 262:0 263:0 264:0 265:0 266:0 267:1 268:1 269:1 270:1 271:1 272:1 273:1 274:1 275:1 276:0 277:1 278:0 279:0 280:0 281:0 282:0 283:0 284:0 285:0 286:0 287:0 288:0 289:0 290:0 291:0 292:0 293:0 294:0 295:0 296:0 297:0 298:0 299:0 300:0 301:0 302:0 303:0 304:0
-0 0 0 0 0 0 0 0.01833583206828638 0 0.2593935424876699 0.1347601756623867 0 0 0 0 0 0 1:0 2:0 3:0 4:0 5:0 6:0 7:0 8:1 9:1 10:1 11:0 12:1 13:1 14:0 15:0 16:0 17:0 18:0 19:0 20:0 21:0 22:0 23:0 24:0 25:1 26:1 27:1 28:1 29:1 30:1 31:1 32:1 33:1 34:0 35:0 36:0 37:0 38:0 39:0 40:0 41:0 42:0 43:1 44:1 45:1 46:1 47:1 48:1 49:1 50:1 51:1 52:1 53:0 54:0 55:0 56:0 57:0 58:0 59:0 60:0 61:1 62:1 63:1 64:1 65:1 66:0 67:0 68:1 69:0 70:1 71:1 72:0 73:0 74:0 75:0 76:0 77:0 78:0 79:0 80:1 81:1 82:1 83:1 84:0 85:0 86:0 87:1 88:0 89:1 90:1 91:0 92:0 93:0 94:0 95:0 96:0 97:0 98:0 99:0 100:0 101:0 102:0 103:0 104:0 105:0 106:1 107:1 108:1 109:1 110:0 111:0 112:0 113:0 114:0 115:0 116:0 117:0 118:0 119:0 120:0 121:0 122:0 123:0 124:1 125:1 126:1 127:1 128:0 129:0 130:0 131:0 132:0 133:0 134:0 135:0 136:0 137:0 138:0 139:0 140:0 141:1 142:1 143:1 144:1 145:1 146:0 147:0 148:0 149:0 150:0 151:0 152:0 153:0 154:0 155:0 156:0 157:0 158:0 159:1 160:1 161:1 162:1 163:1 164:0 165:0 166:0 167:0 168:0 169:0 170:0 171:0 172:0 173:0 174:0 175:0 176:1 177:1 178:1 179:1 180:1 181:1 182:0 183:0 184:0 185:0 186:0 187:0 188:0 189:0 190:0 191:0 192:0 193:0 194:1 195:1 196:1 197:1 198:1 199:0 200:0 201:0 202:0 203:0 204:0 205:0 206:0 207:0 208:0 209:0 210:0 211:0 212:1 213:1 214:1 215:1 216:1 217:0 218:0 219:0 220:0 221:0 222:0 223:0 224:0 225:0 226:0 227:0 228:0 229:0 230:1 231:1 232:1 233:1 234:1 235:1 236:1 237:1 238:1 239:1 240:0 241:0 242:0 243:0 244:0 245:0 246:0 247:0 248:1 249:1 250:1 251:1 252:1 253:1 254:1 255:1 256:1 257:1 258:1 259:0 260:0 261:0 262:0 263:0 264:0 265:0 266:0 267:1 268:1 269:1 270:1 271:1 272:1 273:1 274:1 275:1 276:1 277:1 278:0 279:0 280:0 281:0 282:0 283:0 284:0 285:0 286:0 287:0 288:0 289:0 290:0 291:0 292:0 293:0 294:0 295:0 296:0 297:0 298:0 299:0 300:0 301:0 302:0 303:0 304:0
-0 0.03417641708647266 0 0 0 0 0 0 0 0 0 0 0 0 0 0 0 1:0 2:0 3:0 4:0 5:0 6:0 7:0 8:1 9:1 10:1 11:1 12:1 13:1 14:0 15:0 16:0 17:0 18:0 19:0 20:0 21:0 22:0 23:0 24:0 25:1 26:1 27:1 28:1 29:1 30:1 31:1 32:1 33:1 34:0 35:0 36:0 37:0 38:0 39:0 40:0 41:0 42:0 43:1 44:1 45:1 46:1 47:1 48:1 49:1 50:1 51:1 52:1 53:0 54:0 55:0 56:0 57:0 58:0 59:0 60:0 61:0 62:1 63:1 64:1 65:1 66:0 67:0 68:1 69:1 70:1 71:1 72:0 73:0 74:0 75:0 76:0 77:0 78:0 79:0 80:1 81:1 82:1 83:1 84:0 85:0 86:0 87:1 88:1 89:1 90:1 91:0 92:0 93:0 94:0 95:0 96:0 97:0 98:0 99:0 100:0 101:0 102:0 103:0 104:0 105:0 106:1 107:1 108:1 109:1 110:0 111:0 112:0 113:0 114:0 115:0 116:0 117:0 118:0 119:0 120:0 121:0 122:0 123:0 124:1 125:1 126:1 127:1 128:0 129:0 130:0 131:0 132:0 133:0 134:0 135:0 136:0 137:0 138:0 139:0 140:0 141:1 142:1 143:1 144:1 145:1 146:0 147:0 148:0 149:0 150:0 151:0 152:0 153:0 154:0 155:0 156:0 157:0 158:0 159:1 160:1 161:1 162:1 163:1 164:0 165:0 166:0 167:0 168:0 169:0 170:0 171:0 172:0 173:0 174:0 175:0 176:1 177:1 178:1 179:1 180:1 181:1 182:0 183:0 184:0 185:0 186:0 187:0 188:0 189:0 190:0 191:0 192:0 193:0 194:1 195:1 196:1 197:1 198:1 199:0 200:0 201:0 202:0 203:0 204:0 205:0 206:0 207:0 208:0 209:0 210:0 211:0 212:1 213:1 214:1 215:1 216:1 217:0 218:0 219:1 220:0 221:0 222:0 223:0 224:0 225:0 226:0 227:0 228:0 229:0 230:1 231:1 232:1 233:1 234:1 235:1 236:1 237:1 238:1 239:1 240:0 241:0 242:0 243:0 244:0 245:0 246:0 247:0 248:0 249:1 250:1 251:1 252:1 253:1 254:1 255:1 256:1 257:1 258:1 259:0 260:0 261:0 262:0 263:0 264:0 265:0 266:0 267:1 268:1 269:1 270:0 271:1 272:1 273:1 274:1 275:1 276:1 277:1 278:0 279:0 280:0 281:0 282:0 283:0 284:0 285:0 286:0 287:0 288:0 289:0 290:0 291:0 292:0 293:0 294:0 295:0 296:0 297:0 298:0 299:0 300:0 301:0 302:0 303:0 304:0
-0 0 0 0.9603635797893356 0 0 0 0 0 0 0 0 0 0 0 0 0 1:0 2:0 3:0 4:0 5:0 6:0 7:0 8:1 9:1 10:1 11:1 12:1 13:1 14:0 15:0 16:0 17:0 18:0 19:0 20:0 21:0 22:0 23:0 24:0 25:1 26:1 27:1 28:1 29:1 30:1 31:1 32:1 33:1 34:0 35:0 36:0 37:0 38:0 39:0 40:0 41:0 42:0 43:1 44:1 45:1 46:1 47:1 48:1 49:1 50:1 51:1 52:1 53:0 54:0 55:0 56:0 57:0 58:0 59:0 60:0 61:1 62:1 63:1 64:1 65:1 66:0 67:0 68:1 69:1 70:1 71:1 72:0 73:0 74:0 75:0 76:0 77:0 78:0 79:0 80:1 81:1 82:1 83:1 84:0 85:0 86:0 87:1 88:1 89:1 90:1 91:0 92:0 93:0 94:0 95:0 96:0 97:0 98:0 99:0 100:0 101:0 102:0 103:0 104:0 105:0 106:1 107:1 108:1 109:1 110:0 111:0 112:0 113:0 114:0 115:0 116:0 117:0 118:0 119:0 120:0 121:0 122:0 123:0 124:1 125:1 126:1 127:1 128:0 129:0 130:0 131:0 132:0 133:0 134:0 135:0 136:0 137:0 138:0 139:0 140:0 141:1 142:1 143:1 144:1 145:1 146:0 147:0 148:0 149:0 150:0 151:0 152:0 153:0 154:0 155:0 156:0 157:0 158:0 159:1 160:1 161:1 162:1 163:1 164:0 165:0 166:0 167:0 168:0 169:0 170:0 171:0 172:0 173:0 174:0 175:0 176:1 177:1 178:1 179:1 180:1 181:1 182:0 183:0 184:0 185:0 186:0 187:0 188:0 189:0 190:0 191:0 192:0 193:0 194:1 195:1 196:1 197:1 198:1 199:0 200:0 201:0 202:0 203:0 204:0 205:0 206:0 207:0 208:0 209:0 210:0 211:0 212:1 213:1 214:1 215:1 216:1 217:1 218:1 219:0 220:0 221:0 222:0 223:0 224:0 225:0 226:0 227:0 228:0 229:0 230:1 231:1 232:1 233:1 234:1 235:1 236:1 237:1 238:1 239:1 240:1 241:0 242:0 243:0 244:0 245:0 246:0 247:0 248:1 249:1 250:1 251:1 252:1 253:1 254:1 255:1 256:1 257:1 258:1 259:0 260:0 261:0 262:0 263:0 264:0 265:0 266:0 267:1 268:1 269:1 270:1 271:1 272:1 273:1 274:1 275:1 276:1 277:1 278:0 279:0 280:0 281:0 282:0 283:0 284:0 285:0 286:0 287:0 288:0 289:0 290:0 291:0 292:0 293:0 294:0 295:0 296:0 297:0 298:0 299:0 300:0 301:0 302:0 303:0 304:0
-2.381510030963228 0 1.851424476618625 2.592623869663159 0 0 0 0 0.7184622677426034 0 0 0 0 0 0 0.7184773827283548 0 1:0 2:0 3:0 4:0 5:0 6:0 7:0 8:1 9:0 10:0 11:0 12:0 13:0 14:0 15:0 16:0 17:0 18:0 19:0 20:0 21:0 22:0 23:0 24:0 25:0 26:0 27:1 28:1 29:1 30:1 31:1 32:1 33:0 34:0 35:0 36:0 37:0 38:0 39:0 40:0 41:0 42:0 43:0 44:1 45:1 46:1 47:1 48:1 49:1 50:1 51:1 52:1 53:0 54:0 55:0 56:0 57:0 58:0 59:0 60:0 61:0 62:1 63:1 64:1 65:1 66:1 67:1 68:1 69:1 70:1 71:1 72:0 73:0 74:0 75:0 76:0 77:0 78:0 79:0 80:0 81:1 82:1 83:1 84:1 85:0 86:0 87:1 88:1 89:1 90:1 91:0 92:0 93:0 94:0 95:0 96:0 97:0 98:0 99:1 100:1 101:1 102:1 103:0 104:0 105:0 106:1 107:1 108:1 109:1 110:0 111:0 112:0 113:0 114:0 115:0 116:0 117:0 118:0 119:0 120:0 121:0 122:0 123:0 124:1 125:1 126:1 127:1 128:1 129:0 130:0 131:0 132:0 133:0 134:0 135:0 136:0 137:0 138:0 139:0 140:0 141:0 142:0 143:1 144:1 145:1 146:1 147:0 148:0 149:0 150:0 151:0 152:0 153:0 154:0 155:0 156:0 157:0 158:0 159:0 160:1 161:1 162:1 163:1 164:1 165:0 166:0 167:0 168:0 169:0 170:0 171:0 172:0 173:0 174:0 175:0 176:0 177:0 178:1 179:1 180:1 181:1 182:1 183:0 184:0 185:0 186:0 187:0 188:0 189:0 190:0 191:0 192:0 193:0 194:0 195:1 196:1 197:1 198:1 199:1 200:1 201:0 202:0 203:0 204:0 205:0 206:0 207:0 208:0 209:0 210:0 211:0 212:0 213:1 214:1 215:1 216:1 217:1 218:1 219:0 220:0 221:0 222:0 223:0 224:0 225:0 226:0 227:0 228:0 229:0 230:0 231:1 232:1 233:1 234:1 235:1 236:0 237:0 238:0 239:0 240:0 241:0 242:0 243:0 244:0 245:0 246:0 247:0 248:0 249:1 250:1 251:1 252:1 253:1 254:1 255:1 256:1 257:1 258:1 259:0 260:0 261:0 262:0 263:0 264:0 265:0 266:0 267:1 268:1 269:1 270:1 271:1 272:1 273:1 274:1 275:1 276:1 277:1 278:0 279:0 280:0 281:0 282:0 283:0 284:0 285:0 286:1 287:1 288:1 289:1 290:1 291:1 292:1 293:1 294:1 295:1 296:1 297:0 298:0 299:0 300:0 301:0 302:0 303:0 304:0
-4.155579224238817 1.773396681056842 3.915132504130134 5.673024992692084 1.971465182396057 1.876182437491546 3.344914140900918 1.69451953310936 2.385399743462263 2.944768784798665 1.48057297953071 2.911614112659688 1.558580065021334 3.060417234415199 3.458105209692824 3.290518157758867 5.451528663029376 1:0 2:0 3:0 4:0 5:0 6:0 7:1 8:1 9:1 10:1 11:1 12:1 13:0 14:0 15:0 16:0 17:0 18:0 19:0 20:0 21:0 22:0 23:0 24:1 25:1 26:1 27:1 28:1 29:1 30:1 31:1 32:1 33:0 34:0 35:0 36:0 37:0 38:0 39:0 40:0 41:0 42:1 43:1 44:1 45:1 46:1 47:1 48:1 49:1 50:1 51:1 52:0 53:0 54:0 55:0 56:0 57:0 58:0 59:0 60:1 61:1 62:1 63:1 64:1 65:0 66:0 67:1 68:1 69:1 70:1 71:0 72:0 73:0 74:0 75:0 76:0 77:0 78:0 79:1 80:1 81:1 82:1 83:0 84:0 85:0 86:1 87:1 88:1 89:1 90:0 91:0 92:0 93:0 94:0 95:0 96:0 97:0 98:0 99:0 100:0 101:0 102:0 103:0 104:0 105:1 106:1 107:1 108:1 109:0 110:0 111:0 112:0 113:0 114:0 115:0 116:0 117:0 118:0 119:0 120:0 121:0 122:0 123:1 124:1 125:1 126:1 127:0 128:0 129:0 130:0 131:0 132:0 133:0 134:0 135:0 136:0 137:0 138:0 139:0 140:1 141:1 142:1 143:1 144:1 145:0 146:0 147:0 148:0 149:0 150:0 151:0 152:0 153:0 154:0 155:0 156:0 157:0 158:1 159:1 160:1 161:1 162:1 163:0 164:0 165:0 166:0 167:0 168:0 169:0 170:0 171:0 172:0 173:0 174:0 175:1 176:1 177:1 178:1 179:1 180:1 181:0 182:0 183:0 184:0 185:0 186:0 187:0 188:0 189:0 190:0 191:0 192:0 193:1 194:1 195:1 196:1 197:1 198:0 199:0 200:0 201:0 202:0 203:0 204:0 205:0 206:0 207:0 208:0 209:0 210:0 211:1 212:1 213:1 214:1 215:1 216:0 217:0 218:0 219:0 220:0 221:0 222:0 223:0 224:0 225:0 226:0 227:0 228:0 229:0 230:1 231:1 232:1 233:1 234:1 235:1 236:1 237:1 238:1 239:0 240:0 241:0 242:0 243:0 244:0 245:0 246:0 247:0 248:0 249:1 250:1 251:1 252:1 253:1 254:1 255:1 256:1 257:1 258:0 259:0 260:0 261:0 262:0 263:0 264:0 265:0 266:0 267:1 268:1 269:1 270:1 271:1 272:1 273:0 274:1 275:1 276:1 277:0 278:0 279:0 280:0 281:0 282:0 283:0 284:0 285:0 286:0 287:0 288:0 289:0 290:0 291:0 292:0 293:0 294:0 295:0 296:0 297:0 298:0 299:0 300:0 301:0 302:0 303:0 304:0
-0.644663601983147 0 0 0 0 0 0 0 1.117108781907614 0 0 0 0 0 0 0 0 1:0 2:0 3:0 4:0 5:0 6:0 7:0 8:1 9:1 10:1 11:1 12:1 13:1 14:0 15:0 16:0 17:0 18:0 19:0 20:0 21:0 22:0 23:0 24:0 25:1 26:1 27:1 28:1 29:1 30:1 31:1 32:1 33:1 34:0 35:0 36:0 37:0 38:0 39:0 40:0 41:0 42:0 43:1 44:1 45:1 46:1 47:1 48:1 49:1 50:1 51:1 52:1 53:0 54:0 55:0 56:0 57:0 58:0 59:0 60:0 61:0 62:1 63:1 64:1 65:1 66:0 67:0 68:1 69:1 70:1 71:1 72:0 73:0 74:0 75:0 76:0 77:0 78:0 79:0 80:1 81:1 82:1 83:0 84:0 85:0 86:0 87:1 88:1 89:1 90:1 91:0 92:0 93:0 94:0 95:0 96:0 97:0 98:0 99:0 100:0 101:0 102:0 103:0 104:0 105:0 106:1 107:1 108:1 109:1 110:0 111:0 112:0 113:0 114:0 115:0 116:0 117:0 118:0 119:0 120:0 121:0 122:0 123:0 124:1 125:1 126:1 127:1 128:0 129:0 130:0 131:0 132:0 133:0 134:0 135:0 136:0 137:0 138:0 139:0 140:0 141:1 142:1 143:1 144:1 145:1 146:0 147:0 148:0 149:0 150:0 151:0 152:0 153:0 154:0 155:0 156:0 157:0 158:0 159:0 160:1 161:1 162:1 163:1 164:0 165:0 166:0 167:0 168:0 169:0 170:0 171:0 172:0 173:0 174:0 175:0 176:1 177:1 178:1 179:1 180:1 181:1 182:0 183:0 184:0 185:0 186:0 187:0 188:0 189:0 190:0 191:0 192:0 193:0 194:1 195:1 196:1 197:1 198:1 199:0 200:0 201:0 202:0 203:0 204:0 205:0 206:0 207:0 208:0 209:0 210:0 211:0 212:1 213:1 214:1 215:1 216:1 217:0 218:0 219:0 220:0 221:0 222:0 223:0 224:0 225:0 226:0 227:0 228:0 229:0 230:1 231:1 232:1 233:1 234:1 235:1 236:1 237:1 238:1 239:0 240:0 241:0 242:0 243:0 244:0 245:0 246:0 247:0 248:1 249:1 250:1 251:1 252:1 253:1 254:1 255:1 256:1 257:0 258:0 259:0 260:0 261:0 262:0 263:0 264:0 265:0 266:0 267:1 268:1 269:1 270:1 271:1 272:1 273:1 274:1 275:1 276:1 277:0 278:0 279:0 280:0 281:0 282:0 283:0 284:0 285:0 286:0 287:0 288:0 289:0 290:0 291:0 292:0 293:0 294:0 295:0 296:0 297:0 298:0 299:0 300:0 301:0 302:0 303:0 304:0
-0.2237270145545665 0 0 0 0 0 0.4895822878576441 0 0 0.9799622912723994 0 0.1223175071522302 0 0.474812799395213 0 0 0 1:0 2:0 3:0 4:0 5:0 6:0 7:0 8:0 9:1 10:0 11:0 12:0 13:0 14:0 15:0 16:0 17:0 18:0 19:0 20:0 21:0 22:0 23:0 24:0 25:0 26:0 27:1 28:1 29:1 30:1 31:1 32:1 33:0 34:0 35:0 36:0 37:0 38:0 39:0 40:0 41:0 42:0 43:0 44:1 45:1 46:1 47:1 48:1 49:1 50:1 51:1 52:1 53:1 54:0 55:0 56:0 57:0 58:0 59:0 60:0 61:0 62:1 63:1 64:1 65:1 66:1 67:1 68:1 69:1 70:1 71:1 72:0 73:0 74:0 75:0 76:0 77:0 78:0 79:0 80:0 81:1 82:1 83:1 84:1 85:0 86:0 87:1 88:1 89:1 90:1 91:0 92:0 93:0 94:0 95:0 96:0 97:0 98:0 99:1 100:1 101:1 102:1 103:0 104:0 105:0 106:1 107:1 108:1 109:1 110:0 111:0 112:0 113:0 114:0 115:0 116:0 117:0 118:0 119:0 120:0 121:0 122:0 123:0 124:0 125:1 126:1 127:1 128:1 129:0 130:0 131:0 132:0 133:0 134:0 135:0 136:0 137:0 138:0 139:0 140:0 141:0 142:0 143:1 144:1 145:1 146:1 147:0 148:0 149:0 150:0 151:0 152:0 153:0 154:0 155:0 156:0 157:0 158:0 159:0 160:1 161:0 162:1 163:1 164:1 165:0 166:0 167:0 168:0 169:0 170:0 171:0 172:0 173:0 174:0 175:0 176:0 177:0 178:1 179:1 180:1 181:1 182:1 183:0 184:0 185:0 186:0 187:0 188:0 189:0 190:0 191:0 192:0 193:0 194:0 195:1 196:1 197:1 198:1 199:1 200:1 201:0 202:0 203:0 204:0 205:0 206:0 207:0 208:0 209:0 210:0 211:0 212:0 213:1 214:1 215:1 216:1 217:1 218:0 219:0 220:0 221:0 222:0 223:0 224:0 225:0 226:0 227:0 228:0 229:0 230:0 231:1 232:1 233:1 234:1 235:1 236:0 237:0 238:0 239:0 240:0 241:0 242:0 243:0 244:0 245:0 246:0 247:0 248:0 249:1 250:1 251:1 252:1 253:1 254:1 255:1 256:1 257:1 258:1 259:0 260:0 261:0 262:0 263:0 264:0 265:0 266:0 267:1 268:1 269:1 270:1 271:1 272:1 273:1 274:1 275:1 276:1 277:1 278:0 279:0 280:0 281:0 282:0 283:0 284:0 285:0 286:1 287:1 288:1 289:1 290:1 291:1 292:1 293:1 294:1 295:1 296:1 297:0 298:0 299:0 300:0 301:0 302:0 303:0 304:0
